drug,0,1,2,3,4,5,6,7,8,9,10,11,12,13,14,15,16,17,18,19,20,21,22,23,24,25,26,27,28,29,30,31,32,33,34,35,36,37,38,39,40,41,42,43,44,45,46,47,48,49,50,51,52,53,54,55,56,57,58,59,60,61,62,63,64,65,66,67,68,69,70,71,72,73,74,75,76,77,78,79,80,81,82,83,84,85,86,87,88,89,90,91,92,93,94,95,96,97,98,99,100,101,102,103,104,105,106,107,108,109,110,111,112,113,114,115,116,117,118,119,120,121,122,123,124,125,126,127,128,129,130,131,132,133,134,135,136,137,138,139,140,141,142,143,144,145,146,147,148,149,150,151,152,153,154,155,156,157,158,159,160,161,162,163,164,165,166,167,168,169,170,171,172,173,174,175,176,177,178,179,180,181,182,183,184,185,186,187,188,189,190,191,192,193,194,195,196,197,198,199,200,201,202,203,204,205,206,207,208,209,210,211,212,213,214,215,216,217,218,219,220,221,222,223,224,225,226,227,228,229,230,231,232,233,234,235,236,237,238,239,240,241,242,243,244,245,246,247,248,249,250,251,252,253,254,255,256,257,258,259,260,261,262,263,264,265,266,267,268,269,270,271,272,273,274,275,276,277,278,279,280,281,282,283,284,285,286,287,288,289,290,291,292,293,294,295,296,297,298,299
Piperacillin-Tazobactam,-0.33492613,-0.008520372,0.47724152,1.2629397,-0.7390719,-0.85945046,0.6683837,-0.53831446,-0.53156185,-0.031451073,0.33710837,0.0064052874,-0.8629943,-0.3078367,0.64070207,-0.23128483,0.7094564,-0.24595708,-0.39452597,0.9050992,0.057962038,-0.48953253,0.30284205,-1.1480966,0.42332783,1.3441515,-0.7812376,0.1710356,0.86174566,-0.3031381,0.16598794,0.79675794,0.4738742,0.35076386,0.28834313,-0.5572926,-0.24463792,0.65022975,-0.50064373,0.058798827,0.6555176,1.0669421,0.37008825,0.88003,0.14716175,0.94295317,0.28949678,0.78500426,-0.90190333,-1.1318934,-0.71860296,-0.8614163,0.7129635,-0.2803917,-0.4561164,0.0017021983,0.5330781,0.06472472,0.0479686,0.3530814,0.8552403,0.3678797,-0.6286689,-0.78725135,0.47167897,0.41417876,0.9783964,-0.41846737,0.10742013,0.46683097,0.8678401,0.24137834,0.023262246,-0.7020363,-0.00843927,-0.5055814,-0.7008189,0.05281212,1.4733601,-0.13108966,-0.22965384,1.0858054,-0.8030027,0.8490808,-0.75476974,-0.3302655,-1.5027771,0.44673464,0.5622895,0.3448067,0.16254236,0.18795119,-0.29582652,1.2345742,-0.14057432,0.919633,-0.26875442,-0.64143586,0.7811069,0.6070172,-0.36802402,0.080364205,0.019882651,0.3153917,-1.0625741,-1.2342921,1.1316224,0.8127627,0.022950249,0.88592917,0.8935843,0.23099262,-0.6764401,0.22167337,1.1360276,-0.10371713,0.94581103,-0.71870464,-0.19823764,0.057822857,-0.42894393,0.2608856,0.37574062,0.5034429,0.79588455,0.0651423,-0.021212978,0.3708662,0.11767528,-0.1309348,-0.27755424,-0.1472083,1.7930788,0.83869755,-0.9252886,-0.68784606,0.49387378,1.2763447,-0.2023881,-1.5067149,-1.3214204,-0.11685446,-0.041718986,0.5100943,-0.1325058,0.23952283,1.231215,-0.1815328,-0.31021693,0.12996213,-0.09291256,-1.4344965,0.23731428,0.03639154,-0.53680456,-0.76372004,-0.84054625,0.079354055,-1.420215,-0.0901988,0.13569036,-0.26203418,0.029950956,0.2867659,-1.6312376,-1.0793442,-0.14587812,0.01809079,-0.5886575,0.17219707,0.4903513,0.27789563,0.039618433,-0.025551463,-0.8198218,-0.23613627,-0.63547087,-0.1299949,1.2065024,-1.3132428,-0.6297588,0.3823177,0.1048849,0.36262792,0.40642947,0.007431824,0.019598514,0.046132743,0.037039448,0.74041694,0.48000407,-0.008106886,0.44631124,-0.070702024,-1.1305225,1.815471,-0.35506284,0.46640933,0.9312894,-0.25416973,0.5513467,-0.37897417,-0.98971933,0.52400005,0.3673235,-0.4674092,0.10316968,-1.4967006,-0.054850306,-0.3026004,-0.68087304,0.22488819,-0.93042624,-0.49287117,0.3619732,0.43316448,-0.29908213,-0.41213116,0.593147,0.021267327,-0.8849809,-0.19212407,-0.09825564,0.7073177,-0.22912869,0.48505366,-0.009612407,1.1181437,0.26215982,-0.2816088,-0.2835736,-0.09262545,0.45409974,0.41772532,0.98432535,0.5104393,-0.33524045,0.12666608,0.13305414,-0.6551685,0.4234772,0.009240015,0.095988214,0.16483837,-0.022930054,-1.059889,-0.05807931,-0.6614171,-0.24725269,1.1084316,-0.8320256,-0.73767644,0.64289755,0.40156597,-0.53189766,0.8671635,1.3008695,0.57060087,-0.35508916,0.6070867,0.46071434,-0.6362429,-0.93583846,-0.805767,0.3633629,-0.15939327,-0.6904778,1.180516,0.35108265,-0.15579014,0.13047838,1.0300761,-0.25636756,0.8173694,-0.24729857,0.29419744,-0.34529704,-0.14825766,0.58680123,-0.22903344,-0.06524182,0.23603813,0.10224345,-0.34093606,0.23526531,0.09664758,0.70584035,-0.38880005,-1.0111932,-0.065809086,-0.098538935,0.3379218,-0.44359043,-0.53652227,1.5947006,-1.6568962,0.071748726,0.8438006,-0.3373897,-0.635806
Meropenem,-0.65693,1.3414532,1.006782,0.34092796,0.8352484,0.016062295,-0.30432397,-0.88601446,1.1138945,1.492107,0.7081248,-0.48592094,-0.27862486,0.23317318,1.1551963,-0.8925681,-0.6711045,-1.8990935,0.29064798,-0.90731597,-0.41076455,0.112603515,1.5271136,-2.3362923,-1.4680153,1.7933406,-0.77843267,0.6083767,-0.38098168,-1.3881229,0.25766572,-0.025997382,1.2196593,0.53459024,-1.5237044,1.6945508,0.5118932,1.148207,0.08424887,-0.39126784,-2.1104608,-0.18314569,-0.7418255,-0.86202425,-0.093104295,1.0732576,-0.37005934,-1.3990487,2.0853205,0.458626,0.16258986,0.05926282,-0.0075152866,0.29906327,-0.09427349,1.4038366,-0.9933472,-0.59449375,-0.1313863,-1.2381246,0.36497882,-1.9970351,-0.11114431,-0.39523837,-0.5971846,0.84066576,-1.0085433,-0.31529906,-0.6381421,0.83620065,0.60714465,1.4351726,-1.2206705,0.38215342,-0.73970693,-0.5051548,-0.38605604,0.04007539,1.0976654,0.44446748,0.51441395,1.0861657,0.05269126,0.09415185,-0.7761163,-1.1533629,0.5493582,-1.2861913,1.5894009,-0.6110485,0.40205362,1.0682555,0.14809108,0.2112185,-0.3276925,-0.23312534,0.4846263,2.001524,0.76616675,-0.65198106,0.83597034,-0.6773198,1.5179272,1.2849804,1.6422054,1.3444312,-0.8723309,-2.4361074,-0.5575413,-0.6552016,1.0977279,1.2896578,-2.0170193,0.19347367,0.7584807,-1.9651,-0.58019966,0.7008172,1.018214,1.799361,-0.014715012,1.6393051,1.6385174,0.50022376,-1.018278,0.46555185,-0.22342877,-0.45124805,1.4361433,1.0273072,0.8193462,0.11929094,-0.37918797,0.70905715,-0.58419484,0.8094824,1.3397135,0.048884615,-1.4802262,-1.0267226,-1.298908,1.0312883,-2.1301265,-1.2791176,0.56490195,0.44880378,1.9761708,-1.9743383,0.4550538,1.8631114,0.33925733,0.5854226,-0.08045471,-0.7319241,-0.6699129,-0.019129695,0.17883742,1.219107,0.98545057,-0.6661826,1.6268826,2.0755076,0.6616957,-0.74322844,-1.2888402,-1.4195452,1.3027002,-0.107498206,0.13658002,-1.0934805,-0.16194671,0.5180988,-0.142141,-0.91090816,1.0109645,0.952944,1.5981346,-1.1501715,0.12802885,1.0409738,-1.5348579,-2.3385484,1.8471512,0.7178156,-0.5464745,-2.0555494,1.8284628,-0.07801424,0.99077445,1.8211576,0.87469244,-0.3963511,-0.0030927279,1.6178081,-0.6488007,0.45417297,0.27667367,-0.56339896,-0.7655143,0.21497409,0.28349775,-0.8211165,1.8955508,-0.5903469,0.12624724,-0.11910056,0.394957,-0.45594743,-0.27504063,0.687027,-0.18840437,-0.23353437,0.36305365,0.15366948,2.9144585,1.5687785,1.459718,1.7064701,0.21033539,-1.128568,-0.17798719,-0.15758939,-1.5409003,0.037372105,-0.6816116,0.016981827,0.5884707,-1.0511891,-1.3385396,-0.9661189,0.60379386,1.2544916,0.5649247,1.5425591,-0.42720175,-0.8597822,-0.17931338,0.09213047,1.8174455,-0.79889417,-0.6193151,-1.0524151,0.71666014,-0.24679838,-1.2470412,-1.4784291,0.058677156,0.26797625,-0.6784309,0.73473465,1.1308719,0.53841096,0.44566667,0.087241046,-0.43783826,0.28146735,0.5835181,0.77062726,-1.8264331,1.624161,0.6678565,1.8757079,0.008809238,0.66827893,-2.1286132,1.1254612,-1.4236047,-1.4205625,-0.19592398,0.80182254,0.95628923,0.76418287,-0.38535196,-1.320554,0.30486825,0.9075261,1.1467057,-0.18576933,0.309066,0.37087342,1.977717,-0.6683603,0.9137355,-1.5533617,1.3639225,-0.20880665,0.2818049,-0.42783493,-1.4631892,1.5711752,-0.6966532,0.55318254,-1.276871,1.0262369,0.4762376,-0.6872495,-0.259444,-0.69301295,-1.575055,0.23085481
Ciprofloxacin,0.0026166723,0.6625456,0.76005644,0.30364048,0.5643536,0.078202106,0.18877397,1.5344757,-1.1237926,0.820198,1.9736931,0.9069339,0.030680835,-0.66780007,0.6059173,0.593722,-1.510667,0.14833102,-1.6786397,0.44643787,-0.9298979,-0.54978174,-0.35282025,0.13893114,0.6695224,-0.14036714,0.33135417,-0.16710107,0.10543539,0.11261451,1.2104048,0.32688376,0.2620182,0.079306126,0.50049484,-0.8058189,1.2478491,0.62171614,-0.14774604,0.050585765,1.1141773,-1.259609,1.9119079,0.07441172,1.4316336,1.263972,-0.094733454,0.75726396,-1.1078001,0.23754224,0.60862976,-0.3831429,0.15450391,0.13468462,-0.34827513,-0.055498827,0.9302209,-0.22670572,-1.0809491,-0.10187863,-1.1390125,1.3705952,-1.0998187,0.3880888,0.650853,0.56322503,0.7868057,-1.2644181,-0.5511818,1.3808979,-0.13309276,-0.8215238,0.3986116,0.8900386,-0.1282267,1.1675736,-0.9699181,-0.94089854,0.5087196,0.7761207,0.66966915,0.59733284,-0.27732167,-1.5890485,1.3047907,-0.0666132,-0.30387697,0.09160145,-0.34424627,-0.49282762,0.44397467,-1.2872508,1.2532507,1.2928162,1.4430335,0.58609456,0.76789325,-0.06393743,0.2291902,1.2399794,0.32539147,-1.4457023,-1.3128105,-0.12615637,0.8385977,0.053109873,-0.012735631,-0.041058253,1.252706,0.32106936,0.4658545,-1.3667504,0.83030456,0.025990533,-1.2378659,-0.38301712,0.33970955,-1.3231808,-0.21185493,0.20441404,0.61312246,-0.16993904,0.5885063,-2.0610638,-0.41785958,-1.1741221,0.65831155,-0.10384751,0.22962251,-0.50816834,-0.26055568,-1.6643085,0.10172818,0.11424509,-0.12172672,-0.15950225,0.123263374,-0.1029917,0.9982275,0.5242715,-1.7275243,0.5235975,0.6397688,0.002959478,-0.70128137,-0.43814322,-1.231962,-0.61958,-0.9024414,-0.15672183,1.2578669,-0.2984009,0.3900446,-0.9657368,0.6673304,0.38118935,-0.81961095,-0.56002074,1.3556585,-0.6487104,-0.99328655,-0.91246474,-0.8371514,1.0926448,0.7447091,-0.28648552,0.6820835,1.3275123,0.972112,0.4364027,0.17872517,1.069363,-1.9769405,2.221315,-0.49688324,-0.04888365,-1.1730438,2.1007128,0.84416133,0.34527248,-0.84085286,-0.07487734,0.4306854,-1.4629754,-0.078032024,-0.9101003,0.61438036,0.5606583,-1.2255135,-1.0456522,0.32216513,0.87622046,0.6269805,-0.01606971,-0.7410329,0.10776361,-0.21121542,0.6269261,-0.1883672,0.09964814,1.0247571,0.19138041,-0.52275974,1.0365174,-0.1291517,0.188843,-0.05609729,-1.1167758,-1.1864437,0.07399833,0.35292205,-0.9816799,1.102709,-1.3029338,-1.4298221,-0.28880203,0.37554654,-0.3838501,-0.7431131,-0.51062405,-0.25299323,-0.5361045,1.1622835,0.39447933,1.7439404,0.004567395,-1.2735596,0.7010726,-1.3237102,-0.35682485,0.5225627,1.7041036,2.144272,0.46261865,0.3150389,0.26673618,-1.1363155,-0.050312545,-0.44424638,1.3740233,0.2931879,-0.81355125,-0.11032892,-0.43829083,0.42275596,0.010361722,1.2601093,-0.52374315,2.0645485,0.2527828,-1.1668514,-0.8609976,0.54695016,0.91747934,0.6382032,-0.080907114,0.9135462,0.5149722,0.4461475,-0.4067951,0.66706234,-1.7258394,-0.48872885,0.018326156,-0.06790873,0.713577,0.14903827,0.05814409,0.7749122,-1.2187815,1.0906631,0.39799955,-0.19914609,0.14136064,0.78851706,-1.08759,-0.50790435,0.7962309,-1.3848726,1.2655725,0.69792014,1.1449465,-0.5024837,-0.75133777,-0.31396782,1.2765346,0.8652427,0.6461546,0.5285878,0.81114274,-0.7747226,0.96591294,0.16051504,-0.061009068,-0.13275206,-0.5441574,-0.036475472,0.1495869,0.8268887,-1.9674114
Cefepime,-0.07612173,-0.50205934,0.12305301,1.2800224,0.69414556,0.3003071,1.6634364,-0.19833472,-0.22455819,0.017246496,0.10630394,1.4704478,-0.8138006,-0.80657405,0.64047915,0.3999345,0.45054364,-1.0691653,-0.88464713,-0.21180686,-0.81219584,0.79573226,0.3602983,-0.019532116,0.0071401587,0.7409991,0.22780041,-0.46393415,-1.0602005,-0.03788025,-0.06944882,0.38382375,1.0870793,-0.16225545,0.37046844,-0.31829414,0.731238,-0.46896806,-0.5595048,0.7010593,-1.0414793,0.020660497,0.56457615,1.0689093,-0.51749146,-0.31622797,-0.8651464,0.14670692,0.81252503,-1.0232034,0.8092743,-0.5427609,0.7421637,-0.8937025,-0.113057956,-0.18837434,0.9791588,-1.0651926,-0.47528055,0.84954196,-0.42444596,0.2624608,-0.8251115,0.46710432,-0.23258995,-0.9610202,0.73186475,-0.15969102,-0.33653507,0.9755351,0.44487512,1.1687243,0.583978,0.8216273,0.57629156,-0.48314983,-0.22446096,-0.9342733,-0.7530534,-0.23704548,0.76824296,0.8643253,-0.6737988,0.10285707,-0.75781417,-0.44844094,0.53134954,-0.464614,-0.1807214,-0.105010845,0.40200946,0.021397116,-0.16650301,0.66817516,1.044618,0.38605964,0.1988293,0.48031622,0.7572185,-0.20154123,-0.42517206,0.9559559,1.3279322,-0.45572817,-0.47276074,-0.9669286,0.1974082,0.5389736,-0.081625454,-0.5972503,0.47044882,-0.6464193,0.83306414,1.2379495,1.3521448,-0.23950401,-0.63748074,-0.60746133,1.1787508,-0.11960255,0.38375416,0.32656685,-1.2559645,0.5136347,0.28490105,0.027355697,0.5577654,-0.9818308,0.3277526,-1.3831964,0.8363838,-0.05883876,0.6328005,0.32430834,0.5165909,0.056950152,0.4960371,1.0251672,-0.85452414,-0.4066286,-0.16125607,-0.13384223,0.15528134,1.041432,0.27981117,-0.7887111,0.8493847,-1.2157087,-0.58949596,0.8516315,-0.15366083,0.38851476,-0.49552414,-0.6272861,0.4264565,0.102755,-0.526317,1.090647,0.917878,0.05145186,-1.0573364,-0.35881254,0.42933547,0.19471732,-0.4940943,-1.1908771,0.3868238,0.10821594,-0.13717481,1.4245416,0.37965548,-0.051815543,-0.093700446,-0.16382995,1.0486653,1.497576,0.30913177,-0.5307804,0.1573407,1.3891174,0.6115685,0.4661638,0.92628485,-0.18515289,0.88481295,0.020172372,0.336443,-0.22425495,0.43594497,-0.5395615,0.10326682,-0.60324216,0.27825657,-0.13365692,-0.18011127,0.09664709,-0.73543346,0.20538789,1.6480918,0.74812037,0.19699569,-0.2804578,-0.8205057,0.41517934,0.43789285,-0.71420294,-0.3454774,-0.32352898,0.12590681,-0.41926736,-0.096922085,-0.5873999,-0.41823724,0.899971,0.30280176,0.929852,-0.93285,0.69990635,-0.5659531,-0.09752169,-0.0034089617,-0.36539412,-0.44865733,-0.91583383,0.1539662,-0.058001198,-0.07868639,0.067976825,-1.0887535,0.93015903,-0.17796487,-0.47557488,0.38637,0.90015334,-0.12296727,0.2827806,0.13522688,0.33004302,0.31940994,0.34525418,-0.6329472,-0.38881275,1.0832847,-1.1347156,0.27819157,0.18620504,-0.079154976,-0.659843,-0.73975086,-0.3000193,-0.05485162,-0.8896339,0.45985037,0.2256709,-0.2253034,-0.48808965,0.20155676,0.0665492,-0.19736874,0.6135383,-0.80397713,0.5210031,0.27840492,0.48722365,-0.046427634,-0.9906662,-0.62823933,-0.49218622,0.49766594,0.43397123,0.30439055,0.3784034,-0.109116584,-0.65449667,0.790725,-0.44456968,-0.054918792,-0.43258482,-0.089392796,0.03151289,0.18409292,0.86955744,-0.058720898,-0.35150898,0.034836512,0.653399,0.38174084,-0.8730129,1.2942841,0.59953743,-1.4493047,-0.093673535,-0.86638707,-0.25810057,1.0816022,0.6027529,-0.794167,-0.2190018,0.16242386,-0.47294697
Cotrimoxazol,0.74470395,1.1023865,-0.94385433,-0.18570757,-0.31720152,-1.3972242,-0.18438792,1.4339099,-2.285203,-0.26397836,-1.7537577,-1.85451,-0.78944194,0.5858847,0.92214584,1.0994757,-0.42429605,1.8983743,0.4401395,-0.08681285,0.99318224,2.38856,-0.9604241,1.6070561,0.2639819,0.0012807786,0.26088765,-1.7981848,0.095102675,1.9429355,-0.1636655,1.6414962,-1.7734884,-1.806603,1.5394388,-0.19989866,0.7280906,-1.1062137,-2.31435,0.69118613,2.0607014,0.5523052,-0.3869906,-0.8952671,-0.61330134,0.45393375,0.9562737,1.1264985,-0.8523233,-1.2545763,0.99199724,-0.13625696,1.5309211,-0.48521096,-1.0282356,-1.9699847,0.8051712,0.4507287,0.6128049,0.40075406,-0.5161994,1.1956459,0.8448099,-0.060456466,0.7952887,-0.33025065,0.858432,0.59839875,-1.0504122,0.17697394,0.21642795,-1.2237266,-0.5388221,-1.7709095,-0.0955203,0.25602147,0.021882279,0.20832317,-2.171909,-0.37324432,0.05437546,-0.17273697,2.6266744,-2.4531825,-0.8140408,-0.041775495,0.3551285,-1.2207162,0.03204846,-1.1031206,-0.6969187,-0.22405875,-1.0045686,1.4046954,0.8047533,-0.106833845,0.11711865,-0.9446368,-0.3062179,0.2740103,1.7208545,-0.25824654,-0.38961217,0.80322236,-0.6635086,-1.6580914,1.6370852,-0.975993,0.25069755,-0.33597904,-0.07678024,0.83433086,-0.09113109,0.33338803,-1.960082,-0.20832269,1.8680803,-1.3666768,-1.1811541,0.4163954,-0.024893349,-1.2779473,-0.67896944,0.7087277,0.75012016,-0.38946357,0.27276623,1.0860094,-0.0223222,0.96519995,-1.4523853,0.5118492,-2.5634367,-0.6138462,-1.683923,0.5883271,-0.11319078,0.77210253,1.4375441,0.49579996,0.996651,-1.2046511,0.5309777,1.1031463,-1.1141756,1.2879702,1.1213614,1.3971238,0.4551962,-1.288506,-0.48372316,0.9882121,0.19603188,1.9444474,0.71420383,-0.4039918,-1.2665441,-1.3787788,-0.24565268,1.3060023,-0.27300647,-0.4692848,-1.1086816,1.4981627,-1.1740545,1.2199962,-0.23397952,0.51472664,0.06715969,-1.3351704,0.10408819,-0.27581742,-1.4400511,0.75791615,-1.4839747,-0.021575337,0.40392828,0.88684094,1.6547266,-0.6509172,-0.9247522,-0.34614846,-0.22321717,-1.5470858,-0.53089035,0.8906066,-2.1052988,-0.39549863,-0.90602976,-1.8782344,0.15203083,-0.041558236,1.1057193,-0.2684139,1.1561599,-0.3157224,1.1446222,1.9016123,0.74763274,1.2536787,-0.58341473,0.8306649,-1.542687,0.68617606,-2.2038553,0.84129655,-1.3749309,-0.6185375,-0.5267563,0.86177313,-0.36750284,0.0689131,-0.15673748,-0.70779765,-0.6214612,-0.57860917,0.96433073,-2.802221,-1.2070992,-1.1776936,-0.2460393,-0.08732558,1.8931999,1.691688,0.35582173,0.51834935,-0.7584263,1.3415555,0.52028626,-0.34142324,-2.207715,-0.8367496,-1.5245537,0.9084683,-0.7601383,1.6322708,0.81319577,-0.2093724,-0.78715074,-1.9006344,2.1314566,0.086686134,-0.13988215,1.3329754,0.6364907,0.8729766,1.0456084,-0.11948607,0.12814207,-0.5931576,0.8790898,0.23893842,0.028753532,0.82303953,1.560252,-0.6472996,1.8393948,1.6285492,-0.14717315,0.6068134,-1.4367108,-0.48437056,-0.93700147,-1.1215997,0.44169667,-1.4818286,1.8347539,1.607513,1.1560208,-0.59542614,1.1979511,0.19790131,-0.7927509,1.0817684,-1.9501482,-1.0909783,-0.07307754,0.18518808,-0.21038222,-0.67739946,-0.6240046,0.4723698,-1.5355074,0.22839168,-1.0425724,-1.0068482,-0.25567448,1.6319231,1.2196964,0.602074,0.7809596,-0.520838,-0.5355329,0.11036847,0.33885437,0.5483093,-0.26439616,0.22374408,0.48690298,1.7444835
Ceftazidime,-0.11246802,-1.3252025,0.5935772,1.0039848,0.10258118,-0.8913534,0.12989047,0.47594118,0.009811045,0.14022923,0.7862591,1.1338702,-0.76154894,-0.36428133,0.58960736,0.69374114,-0.38207448,-0.18147343,-0.60242426,-0.40745997,0.052248888,0.07045757,0.1836992,-0.57714367,0.19491768,-1.1688846,-0.3694735,-0.63658196,0.17951272,0.31938222,0.25639603,0.6559693,0.09702967,0.2900379,-0.3133705,-0.1204799,0.52810997,0.10468665,0.04900385,0.6208002,-0.18523802,-0.37037617,0.60782933,0.2304988,0.0023611211,0.30419463,0.2767027,0.25264817,0.8910065,-0.29238826,0.69880575,-0.24689023,0.030644257,-0.34148848,-0.55703497,-0.100350104,0.9577413,-0.5820835,-0.51459616,1.0623907,0.22104579,1.3580031,0.068343334,0.15974493,-0.13964488,0.43828347,0.79919267,-0.8871481,-0.28714654,1.0568651,0.73550606,0.7703754,0.7589842,0.6205781,0.10835075,0.1551355,-0.77921337,0.47115177,0.317581,0.42279938,0.8536219,0.80608994,-0.9906909,-0.025473138,-1.2796329,-1.1037878,0.34066644,-0.09534699,-0.55020297,-0.6553765,0.24227673,0.3533076,-0.121217825,0.9550853,0.61471343,-0.13383603,1.5453812,0.36030313,1.0313407,0.39994857,0.021676099,0.2945417,0.5583537,0.46399367,-1.405646,-0.5650631,-0.021252476,0.067476235,0.26993805,-0.84392416,0.98765373,0.017525734,0.94194496,0.83988476,0.54922223,-0.5909799,-0.14840615,-0.8144026,1.1396067,0.28537694,0.6901553,-0.48486975,-1.0646122,0.008014705,0.30481893,-0.11938143,0.4067598,-0.4450932,0.24274017,0.3069029,-0.28568813,-0.6052624,0.2560751,-0.17049623,0.5670669,0.8781994,0.5937378,0.1628115,-0.23702218,0.07990154,-0.1928499,0.29576808,0.40545195,0.47781056,0.009551659,-0.67309695,0.38628897,-0.31433406,0.21936952,0.8594274,-0.19236019,-0.40577525,0.46522287,-0.06395179,0.75902534,-0.17012927,-0.38882712,0.28840843,0.93884194,-0.09953948,-0.041868027,-0.2793506,0.03948523,0.18056215,-0.67220104,-0.6304324,0.939366,-0.022952829,0.06587839,0.6976881,0.29235077,0.097948685,-0.2646925,1.7313735,0.37488034,0.88755447,0.7355858,-0.060779,-0.98394376,0.12810025,-0.2954375,0.062206715,0.97296035,-0.8988585,1.0808022,-0.46646693,0.3424285,-0.0026744064,0.14643359,-0.85886854,0.7810703,-0.11142648,0.3338385,0.80044776,-0.32111153,0.37768665,-0.23648459,0.107839026,0.67621005,1.3819444,0.5722801,0.080360845,-0.20010118,0.94174147,0.117218785,0.059582043,-0.27911362,-0.31014264,-0.42354172,0.5406692,0.2870868,-0.8412995,-0.13413562,-0.026990242,0.35440812,-0.47959927,0.11801549,0.6499341,-0.3027171,-0.88631666,1.7032081,-0.48769364,-0.4165954,-0.7331376,0.31710345,0.3240976,-0.8443708,0.5067792,-1.1162264,0.6564724,-0.21860124,-0.054133568,0.08783371,0.05101182,-0.10302921,0.5520442,-0.39601722,0.09609242,1.1274096,-0.27262503,0.42897028,-0.77354133,0.4330893,-1.0993073,1.0130131,-0.011807478,0.85069436,-0.8355404,0.6419126,0.614307,-0.40952566,-0.7691503,0.69875413,0.7183829,-0.59240085,0.040104378,0.94452333,-0.22492981,-0.42718634,0.60812056,-0.78104234,0.42026857,1.0904254,0.2298923,-0.029642707,0.1619946,-0.061684545,-0.28659824,0.92707866,-0.38177595,0.21459794,0.43069562,-0.21409708,0.19347064,0.5391026,-0.93169284,-0.32274723,-0.6298925,0.7164524,-0.050297394,0.45379642,1.5844545,-0.2414561,-0.8936058,0.50231236,0.65441644,0.31465837,-0.36099625,0.29306984,0.032428913,-1.2771176,-0.103144936,-1.1649597,-0.05230187,0.47064883,0.22395164,0.18479756,0.08549985,-0.76389444,-0.5177895
Amikacin,-1.3994435,-0.48713997,-0.11940351,-0.57853127,-1.2953513,1.339672,-1.1881902,0.24272026,1.7903146,-0.7727175,-0.85857236,1.3563778,1.4907278,0.7284898,-1.9388317,-1.1873082,0.6803368,1.0344411,1.6559615,1.3839047,-0.8868869,-0.2845428,1.5440634,1.682493,0.29667175,-1.4459556,0.027743539,1.2723224,-1.0851183,-0.84070545,-2.1054459,-1.4732034,-0.19074202,-0.673878,-0.008801802,0.85539883,-2.0073333,-1.9868889,1.3786879,-2.0609617,0.0042847586,-0.35177302,-1.7843722,-2.4702802,-1.8515546,-2.4367874,0.514657,-0.305158,0.527348,2.1955497,-1.0139915,0.48007104,0.17788655,-0.2363597,1.7075237,0.14409046,-2.1864429,-0.33837172,1.1288654,-1.6290071,0.51211274,-1.6197382,1.8378971,-1.3960409,-2.6150243,-1.6712286,-0.5327491,2.2357666,1.9859177,-0.8390775,-1.8114347,-0.110061236,1.792181,1.0287427,-0.52108353,0.068449594,0.9483808,-1.7918804,-0.40394166,-1.007861,-0.26767725,-1.5553864,1.831379,1.3051916,1.8724,2.1242664,-0.16034773,0.61558986,-1.7311306,1.5807983,0.09782325,-0.55242664,-1.3124576,-3.3685987,-0.21621574,-1.720588,-1.6850893,-0.4902355,-2.0738714,-0.31794387,-2.7645812,-0.20447399,-0.08421336,-1.9036651,0.6320079,1.8699719,-1.714407,2.479673,-0.94675064,0.10453116,-2.9456878,1.4182618,-0.64063174,0.8979499,-0.4721865,2.3032966,-1.7112646,1.9092526,-1.2576274,-1.1259679,-0.81490034,1.3911333,-2.2366188,-0.19916965,-0.47916138,-0.6096391,-0.81596273,1.0466887,-1.0556345,-0.19501515,1.3412371,2.504082,-0.08902645,-0.35298303,1.6637421,-1.970954,-1.7542152,-1.0017965,1.4743624,0.17564754,2.089556,0.62208503,-1.3174814,-2.2086163,1.9407486,-0.16861877,-0.39691955,1.6499015,0.24591696,-0.85861784,-1.1281472,0.8780165,-0.6606406,-0.73150533,-1.577979,-0.3556714,2.0416384,0.29080424,-0.6408342,1.2024326,-1.429138,-0.77975726,1.2651522,-1.8143849,-1.5286392,1.2615161,-2.4782426,-1.6072997,-2.665161,-0.47275797,1.0716016,-2.2521713,1.4792033,-1.2221797,1.8465157,-0.53366345,-0.4043637,-0.31655633,-0.9213617,0.54539394,2.363415,-0.7406426,-0.27254018,-0.36923325,0.4599133,1.0945166,-0.31534624,-1.3634479,1.4196471,0.9048417,-2.308453,-0.5031264,-1.5508353,-0.34281823,1.3546518,-1.172234,3.409015,-1.0546926,-0.4849823,-1.834222,-2.5313482,0.68341583,0.60302615,-2.2104435,0.7656533,-1.2838458,1.3939931,2.8859901,0.8176804,-1.6538192,0.89619625,1.832433,-0.1798084,1.3001646,0.06618527,1.7033011,-1.6279111,1.2630991,1.7972299,2.3191924,-0.36975753,1.6815287,-2.3862925,-0.826138,-1.3405118,-0.97645783,0.98263365,-2.6878607,1.0435247,-0.1652987,-0.09793703,-0.10670583,-0.21319517,0.31683627,-0.8328749,-1.4105299,2.2660227,-0.34811568,-0.64598876,1.3275458,-1.5239185,2.26894,-0.11423434,0.27503523,-1.02827,1.490094,-2.596903,0.9008393,-1.1118978,-2.436393,-0.8525414,2.6670682,-2.772958,-2.2508698,-0.7687653,1.1135899,-1.6667165,-1.3089254,1.461629,-1.2100457,0.18591739,0.8649034,0.92666686,0.8612167,1.0847036,-0.25288597,0.27750066,-1.0267547,-2.4661376,1.375393,-1.831059,-2.7005496,1.5800009,-2.095202,1.599229,0.62114185,1.337651,0.09231628,-0.25536782,-0.8367396,-1.9252044,-1.2813109,1.856957,1.8343781,-0.57919204,-1.3374895,-1.0960225,-0.7797609,-0.16039085,-2.4502265,1.7093023,-2.2233512,0.9205498,-1.048361,-0.95038736,1.5462555,-0.686881,-2.2769332,1.8071146,0.062179673
Levofloxacin,-0.18940875,0.09984386,2.296485,1.0174145,1.7363876,-0.2180093,-0.37676862,0.93672323,1.0691587,1.0859903,0.65930176,1.0242023,-0.52635366,-0.79652,0.18294743,0.9086358,-1.5937874,-1.3166567,-0.8081909,-0.3853725,-1.0858917,0.28768808,-0.1897676,0.951742,0.03492428,0.48151425,-0.005805595,-0.5903642,-0.10908176,-0.5431747,1.7304637,-0.8651775,-0.7088749,-0.09063532,-1.1411954,0.3532216,2.4010315,1.0432839,-0.85822505,-0.23692338,0.028558893,-0.11219277,0.61205447,0.39015013,0.06768845,0.38151237,-0.49864385,-0.2288438,-0.43572563,-1.6409696,-0.30282983,-0.45900664,-1.0123051,1.2262589,-1.0893458,0.6725912,0.218713,-1.0650324,-1.0530919,-1.4680872,-1.1447476,-0.8646794,-1.2738417,0.49675867,1.4241949,-0.20194328,0.3416479,-0.6981162,-0.026254697,0.5663076,0.38630652,-0.051856413,-0.6303983,0.9793058,-0.70845205,1.0764222,-1.3660976,-0.3261413,0.26662552,1.5240016,0.73904204,0.79453284,-1.2271334,-1.3703074,0.09172407,-1.5685183,-0.3108558,-0.28939334,1.8082528,-0.33081105,-0.21519576,-1.8488513,1.663693,0.36368245,1.607645,0.71624535,0.84085035,1.5068073,0.6641246,0.38998327,-0.073207416,-1.0887431,0.13869283,-0.114284106,0.8135335,1.4085422,0.3109462,0.1138153,1.2266152,0.80243456,0.45976466,-1.1420377,-0.32268754,-1.008072,-0.50460523,-0.60048175,0.5259499,-1.2082263,-0.33322078,0.8964598,-0.1819904,-0.25903258,-0.74438256,-1.8063157,-1.3568988,-0.88803285,-0.9370435,-0.5667384,0.09405479,0.45376956,-1.7882432,-1.9435564,-0.017965443,0.15982036,-0.43834087,-0.29532865,1.1038259,-0.12460932,0.58845603,0.60848266,-1.6101472,0.28838608,1.6351887,1.3834091,-1.5373302,-1.8332465,-0.94373035,-1.3067847,-1.7019482,1.4546189,0.95068103,0.019575117,0.60065055,-0.8223939,1.0347707,0.3809897,-1.059866,-0.6541145,1.8613902,-0.5701684,0.16087049,-0.54077035,0.074694656,1.0555637,0.99418294,-0.45470226,0.6836057,0.8431749,0.92800474,1.5821966,-1.0663906,1.1217638,-1.0633184,0.15030554,0.09864116,-1.1931889,-1.4038969,1.6656957,-1.2738466,-0.103377946,0.030497432,-1.2651885,-0.697787,-0.22746189,-0.08333304,-1.4572343,0.7763199,1.0927548,-1.2634631,-0.24988432,1.2143549,1.3971808,0.6615245,-2.2376685,-1.1769935,0.123450175,-0.17776556,-0.34234148,0.103373006,0.36522052,1.1457152,-0.5211638,-1.5079035,-0.87137336,0.7827134,1.2838312,0.107384935,-0.96814203,-0.7358703,1.0265573,1.6446868,-2.176528,1.3689145,-0.64778215,-0.8579301,0.9140766,1.0552173,0.20239921,-0.43547526,-0.087020814,-0.10870984,0.022553205,0.1678831,-1.3124613,0.017903492,0.16428211,-1.304712,0.8865581,-0.20003921,0.4122609,1.5316622,-0.47836146,-0.6603831,0.336618,-0.49581283,0.29862127,-1.7347916,0.2924985,-0.7714888,0.11303844,1.1953053,-0.6221023,0.39578503,0.405836,-0.6584374,-0.32642868,0.7252892,-0.26542065,1.0144552,-0.13982137,1.2453655,-1.6065568,1.1897658,0.5455561,0.19998917,-0.23672874,0.60680443,-0.3086919,-2.1055298,1.2654668,0.5285117,-1.9616523,-0.18819275,-0.10302078,-0.1753196,-0.4141697,1.2571505,-0.38015005,1.048865,-1.10109,1.2325432,1.016137,0.4431237,-0.79279995,-0.5793033,-0.80460805,0.56498045,1.4165919,-0.9689884,1.0464232,1.4882892,-0.6166853,-0.037116006,-0.5642598,0.13705005,1.2686048,0.1652787,0.83700246,2.0970376,1.1363499,-0.5922877,1.5859429,-0.5104349,1.0955215,-0.41246924,-0.71755916,-0.36469927,-0.1961926,-1.4408301,-0.2838449
Imipenem,-1.9092096,0.18658745,0.1555857,-1.355112,-0.72025436,1.0728896,1.1341443,-1.5385815,0.15231554,0.41987044,0.9543978,0.64827454,0.727863,1.0861748,0.6340345,0.20605849,-0.0462323,-1.565642,-0.53990215,0.36927634,0.07053608,-0.49442908,-0.02762171,-1.6862762,-1.8718579,0.89135736,-0.40123162,0.8668798,-0.8303177,-0.27446187,-0.3638605,-0.2963151,0.52661943,-0.14097777,-0.88755894,-0.40268007,-0.6692114,-0.27462187,0.303276,0.84255785,-0.6989824,-1.1064005,-0.5673966,-2.6721385,-0.57659304,-0.07347217,-1.0748416,0.31262192,-0.20129448,2.621794,-0.32458454,0.16831744,0.011680522,-0.93558806,-0.20597102,0.7960648,0.6506231,0.54550636,-0.8021193,-1.0507698,0.14267822,0.15731928,-0.7118048,-0.11464731,-1.375675,-0.1962026,0.12103779,0.009512332,0.2426125,-0.3998949,-0.045860697,1.4000288,1.3329965,1.2645743,0.38674465,-0.80447763,0.20168439,0.2554938,0.79731154,-1.8810943,0.066332296,-0.90184873,0.033191897,1.2267356,-0.33308527,0.8623017,-0.996063,-0.7369487,-0.64559317,0.8230794,0.47180396,-0.32761058,0.116809584,0.11803104,0.75010693,-1.2266228,-1.0540918,0.9176091,-0.68961924,0.51773196,1.340693,0.40354094,0.8213284,-0.08293846,1.1784866,-0.030558733,0.18007238,-0.89662135,-1.5884509,-0.40392882,0.4526875,-0.15621857,-0.5614793,0.7580117,-0.02215413,-0.06231,-0.57578087,0.026587002,1.4146353,0.20747769,0.041793775,1.2959836,0.5480125,1.2681084,0.30451247,-1.1186546,-0.19369337,-0.97738075,-0.00057826383,-0.1897033,1.634333,0.3654841,0.59650856,-0.7732606,0.07046364,0.6527577,-0.8027534,0.11196004,-0.8210874,-2.1349397,0.27116853,-0.13005966,-0.8256022,-1.0149004,1.2948384,0.6240932,-0.33987373,0.22871011,-0.3088797,1.0428123,-0.0274339,0.6429471,-1.7461756,-0.30690312,-0.8288478,0.42969298,1.1791673,-0.25487757,-0.22354174,-0.31657547,1.000987,0.23602025,0.44955343,-0.34696847,-0.779715,-0.40016666,-0.5883401,-0.9411397,-0.46770626,-1.6790353,1.3094972,0.44406992,0.7565151,0.17841835,0.41362423,0.8850548,0.5519348,-0.9726085,-0.96193373,0.6241389,-1.2186117,-1.6452615,0.07426426,0.93826747,2.3844326,0.10067198,0.71166146,-0.81455433,0.48043576,1.2488986,0.4487006,0.025856651,-0.53361666,0.49401098,-0.70217246,0.6025679,0.16010202,-0.802905,0.23676865,-1.3937398,-0.2251118,-1.4904375,1.0693101,-0.7870706,1.1098741,-0.46483248,1.8290015,-0.15354906,-2.7278512,-0.3539897,0.4333882,0.18828605,-0.5470323,2.2703729,2.0907743,1.1883692,0.6839342,0.77544844,-0.54405385,-0.66582775,-1.1700193,-0.4924352,-0.5261157,0.92912006,0.11656012,-0.81379277,1.2639766,-0.8329297,0.34917292,-1.0127926,-0.032474246,2.4206405,0.58069754,1.3052354,0.9298857,-0.27788574,0.56200725,0.24361677,0.957412,2.1764674,-1.8303941,0.27268073,-0.031864982,0.15705529,-0.48865,0.53396624,-1.2149862,-0.05459738,-0.34852004,0.15584779,-0.22373961,-1.3453747,-0.057240386,-0.37958467,-0.15898128,1.5623496,-0.29717398,-0.85897285,-1.4766461,-0.5162737,0.40090945,0.6688237,-0.01491779,0.9081744,-1.2970654,-0.08234426,-0.40557414,-0.7648385,-1.5894076,0.068522766,-0.22432561,0.26853085,-0.39673758,-1.0761445,1.0380895,0.649403,-0.959323,0.73752826,-0.21516393,-1.2926779,1.1285324,-0.0019289851,-0.83362347,0.25167945,0.31468073,0.6636045,0.11847842,-0.9513297,-2.2036426,0.61513966,-0.869005,-0.77236456,1.1137367,1.0407969,0.06943069,0.77232873,1.2221359,0.05268989,-1.1462913,-0.3710558
Tobramycin,-1.1773186,0.3673623,-0.17249808,-0.9946877,-2.1409392,0.3134984,-1.2495244,-0.9162232,2.328799,-1.0528467,-1.3343915,0.60533166,1.032827,1.2350364,-1.64669,-1.4648983,2.0455503,0.55467427,1.1034331,2.314822,-0.10149088,0.05872184,1.2589494,1.0080787,1.0847139,-0.3029615,-1.4380524,-1.0823951,-0.09061509,-1.8853097,-2.58605,0.06255118,0.36227307,-1.3343515,2.1792183,0.22499502,-2.6717358,-2.5709455,1.677151,-1.9166757,0.4224229,2.1459563,-1.1652627,-1.700039,-1.1892179,-1.5062574,1.6505547,0.8954961,-0.102719925,1.7941726,-1.4435384,0.536592,0.46936882,-0.2670269,2.068962,0.6466722,-1.4937204,-0.0279464,1.449915,0.15455514,1.5775104,-0.14462394,1.6189944,-2.1184502,-2.6790142,-1.1299098,-0.85896623,2.358231,3.0142593,-1.109213,-1.6403699,0.015099698,1.5361304,-0.08487595,-0.4355532,-1.002632,2.3276608,-2.9654348,-0.8188195,-1.8821363,-0.555101,-2.1515348,1.746097,2.1193957,-0.3660193,2.6078472,-2.22521,1.1434997,-1.58112,1.6015574,0.47443295,-0.2862369,-2.0600715,-2.561402,-1.6182517,-0.5124051,-2.126076,-0.9528257,-1.8454381,0.7339908,-1.6547916,0.49516043,-0.28503126,-1.3835105,0.9149214,0.6830136,-0.3061127,0.6084743,-1.4048907,1.2528635,-3.0466554,0.47219643,-1.4035207,1.2421148,0.06574583,3.0324478,-0.18202099,2.4954624,-1.3264797,-2.1508973,-1.8311975,1.8792971,-0.83330953,-0.055034555,0.15853134,-0.3292761,1.0617614,1.4855453,-0.88037366,-0.536198,1.9090564,2.6421795,0.39183375,0.24178684,1.7044244,-2.4161043,-1.3190266,0.34265694,0.8009871,0.8105471,0.9319674,0.17380698,-2.420252,-2.6009798,2.3874872,0.3384012,0.6140203,1.0497565,0.21165717,-1.1602045,-1.0820141,-0.6439838,-0.14564458,-0.057331044,-2.537279,-2.0256076,0.9165331,-1.4791229,-1.6073819,2.3240805,-1.9592284,-1.5604279,0.49979612,-1.9481224,-1.8224283,1.1436725,-2.0135844,-2.7570136,-2.7110345,0.6143048,2.0817795,-1.5443623,2.3253877,-1.7232544,0.9619347,-0.9200858,-2.150493,-1.3035198,0.5470933,-0.8591096,2.2677617,0.32554442,-0.5264252,0.15075137,1.8173263,2.5006416,-2.0176845,-2.1345806,2.517491,1.0846965,-2.9209342,-1.7378781,-1.155951,-0.44863918,2.2101173,0.03239538,2.4433098,-0.31466332,-0.054873392,-2.1276243,-3.1707737,0.31138772,0.49120924,-1.6994807,0.66448087,-2.775386,0.6254868,2.6826289,2.2506044,-1.3861548,-1.2550287,2.687673,-0.29948366,1.0219891,0.14605197,2.2013428,-2.878082,1.0343678,2.6553364,2.6706195,-1.6131492,1.8111153,-2.7635405,1.2725708,-0.9747439,-0.6445586,1.9457418,-2.4092672,1.4111662,-0.5019611,-1.0226237,-0.48750603,0.34179986,-0.35301092,0.669362,-1.5672693,1.6233158,0.24712701,-0.294735,-1.692559,-0.79131097,1.9684004,-0.16649005,1.2102288,-1.2882091,2.2518792,-2.3402634,1.4860976,-1.798719,-1.9385093,-1.2153498,2.263186,-2.3804693,-2.3862734,-1.8666931,1.7377572,-1.6428859,-0.4868715,0.5502798,-1.6369221,-0.47092235,-0.9471704,-1.1286403,0.13636255,2.2137563,0.12384251,0.023004264,0.6247225,-2.1421926,2.0335996,-2.4612825,-1.27215,0.5494542,-0.8723994,0.018511664,0.33294544,1.5212642,0.29096225,1.4496722,-0.9419872,-2.428603,-0.54933447,1.2586459,2.5628662,0.38557833,-2.2148788,-1.8090845,-1.6796168,-2.0797925,-2.2912393,1.4074241,-2.906638,-0.064677015,-2.9459915,0.38596493,-0.62830126,-2.210823,-2.0083938,2.0062606,-1.302943
Ceftriaxone,0.3102403,-1.4830451,0.9530465,0.4142993,0.28613207,0.7499871,1.4602607,0.3570649,-0.58493674,-0.011258031,-0.18836574,1.2057017,-0.27167013,0.41405103,1.1468186,-0.050182305,1.0027642,-0.27283126,-0.87368554,0.45427758,-1.0556762,0.5566726,-0.4349763,-0.19537127,0.6674683,0.43809184,0.19690605,-0.7422991,-0.74499524,0.016521689,-0.065209225,1.3906475,0.23658708,-0.15255646,0.69322485,-0.5139659,0.08521535,-0.8261159,-0.51904076,-0.3529439,-0.25278702,-0.31123865,0.9893113,0.4725799,0.12446487,0.1822723,-0.008868105,0.604957,-0.21415246,0.27032652,1.0747151,-0.76847416,0.8835793,-0.72691005,0.38608846,-1.1197608,1.633538,-0.30650678,-0.54812056,0.625109,-0.07505692,0.83852476,0.17129081,0.15002978,-0.15479913,-0.4457431,1.183448,0.25118476,0.17356123,0.8639982,0.6223669,0.4577258,0.9358439,0.8031104,0.7032183,-0.20257501,-0.05579966,-0.34824276,0.6173118,-0.76446617,0.39392745,0.3677947,-1.3515973,0.23640305,-0.53287596,0.6476449,-0.8454423,0.334483,-1.2447497,-0.0990333,0.39843118,0.1093605,-0.7387244,0.6450048,0.5273745,-0.38594908,0.44887665,-0.58831596,0.433014,0.5578506,-0.92975175,1.1640266,0.7175326,-0.51663846,0.089716904,-1.5301079,0.99946153,1.2894877,-0.97072315,-0.7261091,-0.106762014,-0.65559417,1.0571737,0.8662876,0.92151046,0.5830621,-0.59366053,0.26790515,0.09089388,-0.9919235,1.3544149,0.5320296,-1.8551605,-0.014469879,0.93557614,-0.16442764,1.9355617,-1.2755535,-0.10127308,-2.0820265,0.92884517,-0.50352323,0.63328385,-0.17469975,0.40734255,0.33510965,0.09255917,1.5886216,0.2304848,0.30689886,0.2625496,-0.7472381,-0.008285922,1.0094254,0.072186075,-0.31715536,0.15613902,-0.7588692,-1.0372032,0.80353314,-0.8857083,0.24003297,0.20980944,-0.3713928,-0.054243825,-0.72285473,-1.082797,1.1251185,-0.26289397,0.38549545,-1.4328284,-0.80011743,-0.1822425,-0.18256395,-1.0699546,-0.42298394,0.097599596,-0.59719664,0.4174226,1.4007281,1.3377308,-0.336516,-0.09773505,0.8399001,0.33063436,1.2343763,0.14774394,0.21888614,0.89705944,0.4536316,0.3438101,1.4840437,0.76331794,-1.3078929,1.3968354,0.8790041,0.029957237,-0.16713764,-0.10508763,-0.7584823,-0.35986596,0.4716151,0.7982293,0.48458767,-0.020426348,1.1718092,-0.2669517,0.017086918,1.7704593,0.57017547,-0.3557872,-0.14583439,-0.026928263,0.43854335,-0.8003898,-0.33695316,-0.50957966,0.10389181,1.1075257,-0.6919845,-0.2404187,-0.29050687,-0.6058108,0.49209893,-0.34847304,0.793342,-0.62104255,0.059051093,-1.3525091,0.06835002,0.5117101,-1.0065411,-0.38680255,-0.424179,-0.055990472,0.69852656,-0.4782983,0.58124983,-0.17880118,1.383956,-0.855984,-0.41531378,0.90956825,0.5853142,-0.43797606,0.37500516,0.18499659,0.6728981,0.384116,0.38005924,0.059350308,-0.26582605,1.0645294,-1.5796998,1.4068224,0.402304,-0.4321137,-0.43950865,-0.5440483,0.48906338,-0.96032107,-0.5106404,0.73090243,0.49130225,0.4599645,0.80295444,0.27125895,0.028976737,0.54632765,-0.027324416,-0.57287514,1.0131137,-0.08598375,-0.013628928,0.23744962,-0.25938928,-0.078534365,-0.89757323,0.64789164,0.029980414,0.26446322,-0.74319917,-0.76152396,0.031005789,1.6966572,-1.1807295,0.7124933,-1.1121386,0.81822264,0.07020981,-0.14027344,1.1120602,-0.14579545,0.010175677,-1.1718473,0.6011703,0.16455807,-0.69849914,-0.5506413,-0.12671642,-1.7090795,-0.7868148,-0.73504376,-0.6215919,0.5829155,0.7222882,-1.2767006,0.21128212,-0.3302621,-1.4757444
Colistin,1.6156346,-1.3060997,-0.018478714,0.19568253,-0.29888728,1.1684952,0.18701467,-0.6483139,0.13096088,1.467944,-1.4234622,-1.4668752,0.2338573,0.28274676,0.4311011,-0.030767506,1.0842249,-1.3359063,0.051456705,2.5328462,-0.35071677,-0.8865912,0.6506383,0.45238674,0.7368138,1.3491989,-0.15246452,0.31978104,1.4177542,0.46036956,-0.2539761,0.43714643,1.167332,-0.81865907,0.84638774,1.0019456,-0.53646636,-0.23359637,-1.5281055,-0.9965855,0.67831796,0.8236026,0.11128418,1.0948318,-0.057407826,-0.6001314,-0.16409156,0.58871394,-0.77359706,0.93661386,-1.6091701,0.23434483,0.57340676,0.3694856,0.5194381,0.49691513,0.63044584,-0.016138047,0.5886674,-0.00022890535,0.6898133,0.18464611,-0.3363112,-1.0927461,-0.23345059,-0.15765697,-0.17179146,0.4809527,1.0699714,-0.65599626,-0.8074773,-0.08592804,0.3999242,0.080495656,1.7406766,-2.1608818,0.97415924,-1.1081105,0.36828098,-1.5388862,-1.8782436,0.9497601,-0.41408,0.22917244,-1.1938268,1.6398823,-2.4700766,1.3456308,1.3349254,1.575756,-0.22189182,0.9219828,-0.9051812,0.14518338,-0.5744847,3.023569,-0.9065458,-0.1316004,-0.5563344,0.7257976,-0.38853619,-0.5053219,-1.954487,-1.272968,-1.1712503,-1.3088877,0.6526567,0.31291503,-0.9478884,0.62808126,-0.57750905,-0.66992575,0.17185865,-0.18326491,1.7879403,0.9695029,0.27276656,0.55178446,-0.3886786,-1.6587592,-0.6369558,0.12571417,0.5200326,0.42842826,0.60144407,-0.41059768,1.0045583,0.52416056,-1.0087357,-0.4255023,0.25792196,-0.9030811,1.0910295,-0.6582171,-1.4608964,-0.7664727,-0.95331913,1.4219196,-1.0784491,-0.045190368,1.367044,-0.43048987,0.108139016,-0.62428504,1.042876,-0.4501278,0.5556037,0.0030649013,0.28803203,0.3595857,-1.5529305,-0.9560681,-0.41933247,0.031742994,-1.5636941,-1.9376017,0.0044924445,0.36834157,-0.8597763,0.47260755,0.075470455,-1.5522069,-1.2036823,0.849874,0.34357277,-0.3400198,-1.4429362,-0.4039208,0.18283637,0.25100714,0.20588736,0.52599955,0.66685194,-0.8535725,-1.0269341,0.28913847,-0.6962939,-0.13169038,1.1574509,-0.7374212,-0.5654299,0.5450012,-1.0677861,1.3005204,-0.098406315,0.65581614,1.258878,-1.2945465,0.18909928,0.063312784,-0.8081444,0.9807056,-0.09264865,0.09336765,-0.67703384,0.932839,-0.8116337,-1.0520993,0.52887416,-1.0632976,-1.1948934,-1.772241,-0.9381607,0.25840518,-0.27541322,0.15376022,-0.765052,-0.38530648,0.9723139,-0.9912689,-2.060598,0.51276207,-0.5140294,1.9780419,-0.5836299,-1.1813108,-0.8525655,-1.701786,0.34011498,-0.017818827,-0.6958358,0.1314624,-0.6699324,1.148083,-1.037284,0.35226738,0.79112023,0.18603817,2.4657898,0.24861635,-0.85768527,0.6259807,1.0474722,-0.655786,1.4928197,0.115086526,0.3021935,-2.1268346,-1.808967,0.94092435,0.23153135,0.77384526,0.2874647,0.09846862,-0.22410974,0.61859864,-2.3982525,0.6121398,-2.2386916,0.85495,-1.41789,-1.1130654,0.14868958,-0.17680356,-0.691335,0.5995616,-0.7141611,-0.048828498,1.7560604,-0.7067097,0.23438428,-0.23098256,-1.805869,0.831696,1.0691421,0.39021054,-0.749522,1.2797356,-0.1257752,-0.49936533,-1.2368475,-0.5784537,-1.208101,1.7646564,-1.2421165,-0.562426,0.37094527,-0.8837017,0.5158813,0.105446,-2.0822308,-1.9628683,-0.6437251,0.48109508,-0.85826325,-1.4318019,0.35395026,0.9332865,-1.6983019,-0.37857476,1.4468509,-0.086429685,1.5738263,-1.0616639,1.7359093,-0.13084331,-0.26773378,0.9468138,-0.37563494,0.4483627
Clindamycin,0.57635295,-0.17712352,-1.089657,-0.2779706,0.0141146155,1.7304217,-0.33898303,0.7948039,1.0657278,0.22914152,-1.2218971,0.47573486,1.1259999,0.3302773,-1.8677835,0.0479666,0.4990023,0.97627693,0.83571887,0.9181268,-0.23993595,-0.0026295686,0.40905422,1.1843125,-1.174693,-0.45869237,-0.47754785,0.46312338,0.66414374,-0.06889901,-0.94354004,-0.53658044,0.006967291,-0.4654127,-0.19997849,-0.9871269,-0.5207008,-1.341023,0.7359456,-1.318852,0.23299819,-0.4263937,-0.10226598,-1.3742926,-0.7953181,-1.652559,-0.5735242,-0.46974078,0.06528793,1.4134867,-0.35140377,-0.17216317,0.54103583,-0.8667535,1.388294,1.2991849,-0.85719097,0.16995291,0.68280494,-1.0210083,0.77585787,0.10574971,0.086168185,-0.14500533,-0.8895039,-1.584927,-1.3477134,2.0176156,0.16159412,-1.2892773,-0.7521712,0.66191137,0.6363142,0.25698376,0.33679825,-1.067443,-0.064605944,-0.6445232,0.21765946,-1.0273134,-0.52228475,-0.8948305,0.8662727,-0.041362505,1.4975606,1.2591472,-1.0949409,0.6695715,-0.71106076,1.1931084,-0.4684232,0.12705526,-1.3061506,-0.9151011,-0.5565494,-0.18186116,-1.3718387,-0.0150736375,-1.7748587,-0.72316647,-0.17589383,-0.037181698,-0.7231395,-1.4088318,0.15267105,0.7059866,-1.8548543,1.4130679,-0.2864582,0.12175835,-1.7722266,0.9975594,0.90864944,0.552883,-0.2027539,0.8911757,-1.7962936,0.95422953,-2.0086234,-1.1284618,-0.1684628,1.3097013,-2.076646,0.12100117,-0.010703349,0.47908124,-0.18931556,0.46950322,-0.7781106,-0.18621929,0.9619851,0.8981972,1.1680225,0.46838894,0.39193103,-0.93341684,-1.3162913,-0.17983824,-0.018360622,0.8782406,1.251547,1.0152221,-0.46203977,-1.5081071,0.5130876,0.16761924,-1.7732619,0.28092334,0.38538986,-0.7995621,0.80972415,0.06909958,-0.7810417,-0.67219406,-1.0015974,0.60250866,0.40902886,0.21390676,-0.371285,0.93276656,-0.3725214,0.3338443,0.5779668,-0.265457,0.047916412,-0.45646837,-2.0988915,0.58722836,-0.46528974,0.08254315,-0.35132703,-1.1924074,1.3305676,-0.9798708,1.302494,-0.6759644,0.3250375,0.06646327,-0.43431255,0.7446481,0.88086444,0.08523988,0.541684,-0.12565385,0.2986107,1.0004636,-1.4501107,-0.9741221,0.3117399,1.4862733,-1.143574,-1.427845,-1.5137502,-0.19714256,0.3949993,-0.7403982,1.6826334,-0.15663315,-0.16491994,-1.6900098,-0.9433064,0.025951585,1.384522,-1.5086417,-0.027627895,0.32391855,1.7420547,1.002877,1.5532507,-0.52077484,-0.49252367,0.6308348,-0.48843855,-0.24300775,-0.15452443,-0.41787833,-0.73166573,0.5386102,0.6038408,0.33535913,-0.25567335,-0.6020138,-0.4881399,-0.98412913,-0.1896743,-1.1424575,0.8435969,-1.1308728,1.1383665,-0.38374248,-0.25206,0.57637036,0.59769666,0.062317345,-0.17120838,-0.51607776,1.1330851,1.0285829,0.06233471,1.1412599,-1.315869,0.8856516,0.26058704,-0.13222761,-0.83542204,0.5243245,-1.7884899,0.9106775,-1.1236875,-0.12542841,-0.95025766,1.3746884,-1.310189,-1.2077742,-0.9084091,0.5301814,-1.7781093,-0.47944075,1.3855375,0.14679413,1.0353472,0.26491845,0.11496766,0.6757893,-0.13690948,-0.1979573,-0.34130448,0.4625808,-1.0599426,0.33895147,-1.2578571,-2.9033184,1.1232388,-0.477351,-0.47816238,1.0100327,-0.46575606,0.22833905,-0.38250434,0.20578733,-1.0032314,-0.48158848,0.18480666,1.2759591,-0.48192856,-1.3113089,-0.4731112,0.4389601,-0.2819705,-0.62194943,1.684735,-0.9104405,1.0813528,-0.78424805,-1.5100963,1.4114888,0.29356366,-1.3809915,-0.38214284,0.75846064
Amoxicillin-Clavulanic acid,-0.45115623,0.28969303,0.008237026,-0.1295578,0.6977516,0.079696655,0.48463497,0.19501512,0.37536198,0.32513052,-0.43464845,-0.028389648,-0.71055686,-0.050456084,0.4683347,0.37990665,-0.31651768,-0.063563004,-0.4270478,-0.8295615,0.14537363,-0.89597267,0.49837795,-0.78415984,-1.1740429,0.43193918,0.50393623,-0.06501179,-0.43144974,-0.22407351,0.19823135,-0.38398197,0.14350687,1.0004462,-0.7424078,-0.43000093,0.1197851,0.6337033,0.15503822,0.8381879,-0.93646556,-0.42039672,0.28728163,-0.28855085,0.66356546,0.42763466,-0.9657613,-1.3520774,1.0287224,-0.099193245,-0.107995376,-0.9976534,-0.015914574,0.12482874,-0.9752492,0.5245011,0.6123041,-0.1417901,-0.8716409,-0.33798793,-0.072286,-0.2109559,-0.3876379,0.85795045,0.14829777,0.052089483,-0.26426017,0.1208129,-0.7217317,0.46451828,-0.488106,1.1473773,0.75860095,0.46094185,-0.7447101,0.4375383,-0.29229102,0.5718558,0.21937351,0.34275946,0.85116595,0.723175,0.49149814,0.19587506,-0.09197726,-0.8899532,0.38695532,-0.47236153,0.9363419,0.757079,-0.30997914,-0.69449633,1.1420175,1.0914729,0.18964286,0.2580392,1.1590954,0.85755306,0.98855644,-0.40873238,-0.028016187,-0.33590558,-0.40023327,0.7722032,0.39154243,-0.4695229,0.11562185,-0.04683596,0.6125977,-0.49912375,0.23557954,-0.3575931,-1.3165692,-0.40801606,1.382042,-1.1991093,0.38928902,-0.77033895,0.42739472,0.7406643,1.2909943,0.41784215,0.4550304,-0.12671056,-0.58857816,-0.15497938,1.3510556,-0.81743914,0.1949183,-0.2765394,0.5569496,-0.4502105,-0.097986504,0.35883012,-0.4523338,1.199251,1.3158265,0.21837632,-0.56914335,-1.0088784,-0.6900424,0.03527967,0.17454205,-0.16545591,-0.6660019,-0.25866798,-0.6881191,-0.2530796,-0.15733643,1.1768476,0.2588794,1.0702622,-0.2988949,-0.7562431,0.6115356,0.51048386,-0.23197262,0.47755662,1.1328837,-0.776612,0.5214238,1.067472,0.37463015,-0.32019845,0.10183326,0.397298,-0.12896118,0.22964327,0.22248097,0.105872944,-0.8488619,0.30215013,0.180454,-0.6797484,-0.05243394,0.30826867,1.1401404,-0.014734706,-0.32230046,0.10338393,-0.5565391,-0.22584286,0.66435707,-0.5990807,-0.9344571,-1.0489135,0.2498804,0.1797438,-0.18174301,0.2106443,0.98374146,-0.10777539,0.47903958,0.1126845,-0.30765516,0.16548471,-1.0745903,0.31896248,0.25197297,0.15031165,0.5501714,-0.019258067,-0.01165506,-0.2816926,0.12788141,1.0495515,0.06693717,0.08607285,-0.32349595,0.16063027,0.85190207,0.31419733,-0.9866298,-0.7323999,0.6635635,-0.93678284,0.32070628,0.5754569,0.36283594,-0.35273463,0.04921222,-0.8412319,0.18902688,-0.6786196,-0.3161265,-1.0023965,-0.44665137,-0.052516893,-0.6231012,0.5384416,0.44208682,0.72660524,0.69435805,1.0263973,-0.36335516,-0.034922052,-0.14749984,-0.43553904,0.95847285,-0.5844472,-0.1819068,-0.43583277,-0.111709274,-0.18682328,-0.29325846,-0.18884681,-0.11197159,0.22182155,-0.1981332,0.026004918,0.3853661,-0.9689468,-0.6934564,0.4548713,0.5237763,-0.24356332,-0.84738123,0.55517846,0.6217368,0.90014786,0.32084718,1.1266578,0.34727356,0.9330143,-0.79164183,-0.34169263,-0.63791156,-0.55814624,-0.3822159,0.3945122,0.6590991,0.00890253,0.41428486,-0.4738535,-0.24796589,0.12145052,0.32850277,-0.7915626,-1.0672431,-0.4807041,-0.27091557,-0.18945627,0.24763075,-0.8681676,0.72631824,1.0282532,-0.263355,-0.4109036,1.1053711,0.6343967,-0.54770994,0.36284706,0.67693126,0.68552667,-0.22973143,0.02445301,0.41190976,0.09771971,-0.43847138,0.31612843
Amoxicillin,0.17617533,0.1197494,0.11529136,-0.5382234,1.2277308,0.038093276,0.08154429,0.6964975,0.22649619,0.40086704,0.58642334,-0.49751988,-0.6749341,-0.59705764,-0.3838394,0.063651174,-0.87740207,0.3138487,-0.41665724,-2.126501,-0.22111791,-1.4192749,0.7319131,-0.5096224,-1.1968002,0.28728122,1.546845,0.4525614,-0.6332402,-0.5578322,0.7220385,-1.3313272,-0.4351112,1.3335785,-1.2931637,0.02295324,-0.24410969,0.8833699,0.06726378,1.1861106,-1.8178028,-0.96865827,-0.0017402942,0.102876104,0.9242994,0.0065037133,-1.0592788,-1.4581621,1.428303,0.8675822,0.73986465,-0.5275588,-0.60791093,1.3587173,-2.0860195,0.9343829,0.21088517,-0.15220052,-1.5158005,-0.63413954,-0.66650736,-1.1425247,0.09189894,2.138434,0.058432564,0.3455999,-0.54600286,-0.8443398,-0.7008184,0.3927653,-1.1526865,1.2732189,-0.26362768,0.7633001,-1.4335558,1.6556157,-0.24397601,0.8923807,-0.14453547,1.7311051,1.9105772,1.4459678,1.1947188,0.12866579,1.0132167,-1.8200125,1.1811454,-0.67686754,1.4477359,0.2837065,0.08879295,-1.7089487,2.3696747,0.22060612,0.007282261,0.17589782,2.1249065,0.9766373,1.6993402,-0.6949728,-0.1941468,-0.65805715,0.36328128,0.86493874,1.2384796,1.2779794,-0.06143321,-1.0936186,2.1358197,-0.055115975,0.5287004,-0.57530755,-1.2952621,-1.2185065,1.8517162,-2.0124972,-0.19003731,-0.65507835,1.2074164,0.5131103,1.6227386,0.19438532,1.4825076,-0.50275993,-1.1672472,-0.7265269,1.0946102,-1.3172098,1.4707819,1.0633472,-0.1994174,-0.8637221,-0.9360139,0.67240345,0.5225975,1.7651377,2.0863478,-1.0079631,0.10584025,0.010588282,-0.7880791,0.482813,0.34618774,0.021300185,-1.1304803,-1.6460196,-0.6312514,-0.71521926,0.04000885,1.8170176,0.6702246,1.4706409,0.44819632,-0.45201105,1.2031783,1.1433903,0.78716546,0.047389805,1.6022094,-1.2864332,0.39777604,1.1703813,0.6622356,-0.1675293,1.1965959,0.5513921,0.42019752,0.14185794,0.36162215,-0.61309975,-1.5027493,-0.05467744,-0.40949857,-0.65176606,0.5820456,0.30775583,1.0452557,-0.22480957,-0.43822473,0.68523395,-0.40130234,-1.2430898,0.06197491,0.0074573765,-1.4994674,-1.7737126,0.9022544,-0.20165575,-0.30796793,-0.6015298,1.1868423,0.65970606,1.2139013,-0.8694476,0.2788401,-1.4380782,-0.8486627,-0.079735614,-0.60096586,0.6269901,1.1869617,0.59235936,-0.040975336,-0.025408171,0.71054304,1.572495,-0.20133597,0.06537843,-0.7238688,0.9701904,1.2053272,-0.07274658,0.56644297,-0.9125573,0.97941715,-0.3690948,1.0431184,1.0525064,0.90649164,0.21301447,0.24918857,-0.43355846,0.92232513,-1.4149073,0.07347368,-1.2042753,-0.72141343,-0.39493448,-1.0116558,1.1458671,1.2399318,0.32908943,0.96322024,-0.2973716,-2.0771456,-0.52720654,-0.49348828,-1.1182914,1.4406672,-1.2090962,0.11115351,-1.2040644,-0.31141323,-0.041135643,-0.8169053,-0.37418216,0.008134314,-0.16018708,0.37876755,-1.0254434,1.5031931,-0.6938355,-1.1887898,0.45152903,1.3025737,-0.94984096,-1.5308143,0.6591783,0.19411945,1.2557623,0.3732531,1.1793132,0.6934047,1.3421239,-1.4678438,-0.30030742,0.53872484,-0.4965658,-0.17142057,0.8436387,1.1130134,0.15985198,1.5249637,-0.84530836,-0.35088372,0.020813921,0.84135616,0.12534465,-1.4649612,-0.99153244,0.32141137,-0.22954279,0.46608728,-1.3216156,1.933212,1.6986384,-1.0597154,-0.23957744,1.6408275,0.6736582,-1.4112244,0.747363,0.714632,0.9364465,-0.3203857,0.1358395,0.565604,-0.089528896,0.016630577,0.021553881
Vancomycin,-0.32061654,0.27960655,0.7580361,-0.30917242,-0.1097726,-1.1485702,-0.24558702,0.287806,-0.038086694,0.28973067,-0.63780445,-0.1591605,-0.4308741,0.24452403,0.1360745,1.3056506,-0.1743639,-0.6399319,0.7093831,0.046088606,0.121474445,-0.22156356,-0.009789609,-0.19865339,0.83307606,-1.1998918,0.6664312,0.5260131,0.6662362,-0.014087125,1.1355389,-0.35401627,-0.49180233,0.76616484,-0.17369604,-0.19848822,0.64428383,1.2199658,0.022547552,0.15114589,0.8746709,0.65975213,-0.029398233,0.6819365,-0.32484645,-0.48859254,-0.20355724,0.27932402,-0.7265484,-1.4528284,-0.87086093,-0.8143872,-0.96726507,-0.15819143,-0.039456844,-0.32435805,-0.8777866,-0.25035718,0.25773835,0.3234794,0.14319481,-0.18263035,-1.0677147,-0.40368423,0.89272106,1.0655543,0.4977504,0.09727309,0.38006184,-0.73961776,0.1968391,0.16000992,-0.5744893,-0.49047336,-0.2208112,-0.023984617,-0.0056655984,0.4152134,0.5157648,0.5639391,0.24074881,0.2672041,-1.429752,-1.2519292,0.00299117,0.3227123,-0.08311911,0.9470386,0.968813,-0.32629982,-1.2736951,0.27960795,-0.36697194,0.12870793,-0.55297184,0.7271687,-0.0060036345,0.9270954,-0.0027667247,0.2225049,0.090217866,-0.39743945,-1.1944864,-0.5748783,-1.342732,-1.0931922,1.1608468,1.0919862,0.30358183,0.5311102,-0.19011971,-0.004180266,-0.25421315,-0.9374296,-1.124679,-0.47666818,0.88423645,-0.39354193,-1.2649989,0.90041035,-0.43403804,-0.58391416,-0.31709653,-0.9705733,-0.2089673,0.71836066,0.36611545,0.5040786,-0.59322244,0.52808374,-0.9548429,-0.58762085,1.3876202,0.283078,-0.12871468,-0.38489816,0.40094337,-0.124899834,-0.24236183,1.3959833,0.1484906,0.41158175,0.9381583,0.99090075,-1.2281975,0.87181085,-0.10517041,0.5902831,-0.2136176,-0.39618263,-0.012699046,-1.3550394,0.11492325,0.34452707,0.09849388,0.18114242,0.22469081,-0.114590526,-0.24879165,0.02090775,0.38526803,-0.07185296,-0.3257741,0.81740737,0.36369544,0.08963891,0.479837,-0.16058351,-0.28619954,0.19171427,-0.4853033,0.31366527,-0.17055017,0.3499177,-1.1446588,-1.6497395,-0.4589827,1.1385825,0.54155016,-1.4255072,-0.14009579,-0.44220483,-0.36097988,0.09970991,-0.8132142,-0.28649917,0.2731247,1.6607834,-0.28644037,0.17937534,-0.30362925,0.23697028,-0.5674,-0.5840971,-1.005977,0.3756791,-0.005633209,1.0138144,-0.44270357,0.11537197,0.51301295,-0.32286286,-0.49256003,0.43077713,-0.5278135,0.14815457,-0.0662892,-0.48499644,-0.6078096,0.6326069,0.1902179,-0.8695438,-0.45492214,-1.1234285,-0.74679863,-1.3128703,0.5908746,-0.67813885,-0.28426972,-0.8235807,-0.24718907,0.3410823,0.27703354,-1.0011712,-0.23192284,-0.0070290496,-0.27913836,0.6023562,0.87861913,-0.31058484,0.6753817,-0.78875947,-0.71112114,-0.37828436,0.84425926,0.5516632,-0.78294885,-0.5601529,-0.9069262,0.3813174,0.5786631,0.17787759,0.1492293,0.46477693,-0.050952874,-0.76081365,0.46323746,-0.41075614,-0.1712093,0.3116032,0.34406775,-0.29578787,0.72470003,0.1106117,0.12149384,-0.50897825,-0.21666458,-0.65749836,-0.08278578,0.18166357,0.4046779,-1.1734267,0.5472141,-0.7063596,0.39574364,0.56462127,0.05316585,0.04397488,0.98531467,-0.80459493,-0.4760049,0.71278036,0.1560724,1.1191962,-0.0946215,-0.5426726,0.7037843,-0.012213871,-0.38786018,0.6209101,-0.22707339,-0.40532544,0.60925287,-0.36860007,-0.87479186,0.047703464,0.083699845,0.50673103,0.4757436,0.13982357,0.4711106,0.6391294,-0.3385935,-0.0049691927,-0.5545352,-1.3797928,-0.101938985,-0.31796974,-0.7347663,0.32696646
Penicillin,-0.019553684,0.42512956,-0.34101132,0.8621161,0.33346808,-1.2604883,-1.2846667,-1.3546131,0.20260471,-0.70999455,1.2328783,1.5523527,0.33827922,-1.465287,0.21607304,-0.546295,-0.19896999,-1.1219169,-1.1443104,-1.2222877,0.5304534,0.5563346,-0.11413191,-1.0911937,-1.4631289,-0.09512716,-0.41597772,0.7376941,-1.6185644,-0.10139505,1.0166419,-0.4603022,0.7399403,0.6292087,-1.2481202,-0.19597846,1.0444211,1.3508087,0.48106903,1.5185694,-0.71794903,-1.4607239,1.1253372,1.1424466,2.4140275,0.28251597,-0.32931417,-1.9758446,1.2490394,0.5900912,1.7613698,0.3766104,-0.26297572,-0.8266874,-1.5466262,2.006777,1.2099048,-0.41764852,-1.5155101,-1.6381083,-1.2679244,0.27009666,-0.6897311,0.5042878,-0.2725865,1.0958477,-0.67790824,-0.43607548,-1.3539451,-0.12745565,0.4398755,0.5329357,0.032908365,1.8062489,-1.7768494,1.2665672,-0.83956873,0.25252104,1.0902355,1.971398,0.5206655,-0.38487545,-0.93005264,0.51732796,-0.19673325,-1.3098121,1.6172025,-0.5092688,-0.008146666,-0.46856934,0.81341743,-0.023429954,0.12132986,0.89709175,-0.1361206,-0.825506,1.388491,2.6305785,0.5151823,-1.069082,-0.63167477,-0.46304017,0.47459242,1.2023219,-0.11267011,0.87101305,-0.4462134,-1.497442,2.0690434,-1.5536909,1.053872,-1.0374597,1.2987133,-0.7034144,0.9015055,-1.8112631,0.09840509,-1.3595723,2.1683896,2.1089058,1.3353984,0.6352397,1.0641595,-0.1543345,-1.6131115,0.601604,-0.033439346,-1.6613421,1.1553465,1.2196001,-1.077988,-1.1844935,0.7785008,0.32526895,-0.28417256,1.5793128,1.1620921,-1.3818806,0.65939283,-0.027114736,-0.76087034,1.2012444,0.034281563,-0.20105326,-0.32202628,-0.94807154,0.07435751,-0.03701161,1.2522233,1.1758794,0.51991564,0.15542951,0.958827,-0.4063587,1.424021,0.6393222,0.8446795,0.3195276,1.9445903,-1.807608,-0.560952,2.49064,-0.24579693,-0.021557916,-0.4557213,-0.958591,1.3600713,-0.4913421,1.7230663,-0.2614031,-0.83564764,0.8247267,-0.7250304,1.7953923,1.0891553,1.2053262,0.5106466,-0.6267589,-1.0342802,-0.47086716,1.2629862,0.17247567,-0.39492747,-1.7548531,-1.2073194,-1.480644,0.8310313,0.21827914,-0.63690716,-0.9230319,0.94237447,0.7661476,1.1506232,0.17827345,-0.72188354,-1.6508125,-0.49038354,0.52225894,-1.1938765,0.8169533,1.4275937,-0.13435698,-0.5747178,0.4671431,0.67503434,0.42658836,0.7147023,-0.17968625,-1.5834821,0.2301527,0.9191423,-0.84356797,-0.0606052,-0.4544307,0.7280439,-1.2150263,1.8521957,1.1574192,0.5870566,-1.1574984,1.5129346,-1.0938071,2.3064456,-0.61735636,1.946843,0.30745348,-1.6538196,0.24257499,-2.073958,-0.23299418,1.5095675,0.9303153,-0.3479274,0.34921998,-0.39469293,-0.38588455,-0.4867138,-0.007478058,1.5682734,-0.4476474,-1.3161272,-1.6545357,1.5433553,-1.066942,0.67498624,-1.1559049,0.8185388,0.03831783,1.5155082,-0.24342756,-0.067484386,-0.9422719,-0.20821403,1.5934715,1.4292483,-1.7771337,0.4326861,-0.22777568,0.444928,-0.59175146,-0.86061674,0.6365237,0.805519,0.20089997,-0.36586103,1.4657953,-0.3301147,-2.4809175,0.500618,0.23480295,0.79738516,0.7776092,-0.5050329,-0.9919755,0.9605378,0.2601551,-0.40567714,0.5049371,-2.128646,0.29968664,1.8312436,0.7511061,-0.13958693,-1.9764686,0.9396602,1.6003186,0.52459157,-0.4811267,1.72807,1.2051246,-0.4450302,0.7618203,-0.021826746,0.9858552,-0.99910986,-0.9540346,1.8663888,0.96847177,-1.7439153,-1.0440983
Metronidazole,2.1381333,1.7585196,-1.7920216,-1.3718456,0.553795,3.7144842,2.418144,0.6490046,-1.2067565,1.3393027,0.4499383,-2.084972,-1.2510562,-0.92656535,2.6865475,-0.8623794,-0.057330914,2.102487,0.9159606,1.0198665,1.9176464,2.3547513,-0.5676911,0.90999514,0.31361392,2.2095938,-1.339773,1.1267862,0.6025025,2.2721665,-2.2935212,0.38438812,-0.57480675,-1.1419774,-0.66765964,-1.9319804,-1.8298551,-2.1748493,-3.0072227,-0.03385283,1.0695006,0.17868808,-1.8473613,0.36231533,-1.7248608,1.0066195,1.5457412,1.9861289,-2.5652783,0.4279588,0.2005974,2.4651546,1.9653168,-1.6642855,-2.590922,-2.1656694,1.6294713,2.9347346,0.54147726,-0.74542254,0.67295957,0.394677,-0.090715215,-0.8541876,-0.11721627,-0.79639786,-0.14175259,-1.543294,0.5565299,-0.4455315,-1.8267565,-2.7880948,-1.2134304,-1.0291485,2.1090212,0.31911823,1.7585971,-1.3857038,-2.036277,-2.621741,1.0970892,-1.4580857,1.3190926,-1.6063482,-2.1250741,0.9370521,1.7225083,-2.2828164,-2.5265286,0.15996158,2.0267637,-1.8333044,-0.47961354,0.23025289,2.2436297,-1.0436363,0.2606755,-2.9101603,1.4477094,2.356667,-1.060088,1.1981708,2.8413868,1.5521259,1.8735564,-1.1780465,2.1502407,-0.56782174,-2.4589942,-0.3582819,0.63556856,4.518195,-0.74932355,0.46109775,1.8953297,-0.1687985,-0.44582897,-0.15398426,1.1896394,-1.1118318,0.55920506,-1.7958273,0.5037856,0.27633125,1.6176174,-3.050338,-2.4412365,-0.21584131,0.88726205,-0.7067326,1.2726188,-0.7994284,-2.3312595,-0.12231846,-1.7642062,-1.16913,-2.2680442,3.0690076,-0.024846183,1.1789118,2.2740648,-3.2483227,-1.4510871,-1.6438086,0.9313357,2.397386,0.9830308,2.0540602,1.7587527,-0.38921094,2.9392717,3.2764432,1.6098298,0.083303995,-0.50093585,-1.787529,0.22806504,-1.6888957,-0.4426307,0.43270338,0.24293335,0.11397146,-1.9293948,-0.8115415,-0.06887389,2.2804449,-0.9829585,0.23819162,9.784844e-05,-0.23871706,2.134692,-1.9702929,-0.2098102,-1.2641467,-0.372219,2.453506,2.7467587,-0.816417,0.6612284,0.5297521,-2.228395,1.5772152,1.818445,-0.16971396,3.495552,1.8527715,-1.151032,-1.6248289,0.42038348,0.75755024,0.5203283,0.25312927,0.32767445,-0.08270662,0.6556824,0.9111169,-0.30828735,-0.47723213,1.6559299,0.053996652,-1.5811672,1.4902964,0.29231495,-1.77061,0.4870259,0.51666796,0.28471947,-0.85632074,0.19867761,-1.2905532,-0.23039383,2.1686215,-1.7493964,-1.6681836,-1.340748,-1.3038796,-0.6924576,-1.4153743,-2.2646658,-0.4466406,-1.4654133,-1.2901391,0.5573178,2.687099,1.5661321,4.039311,1.4625623,1.1453588,1.6367838,1.0814193,-3.1678612,2.6867886,-0.079270154,0.22833529,0.6326293,1.4240211,2.310914,-1.9072227,-1.444511,0.85379255,0.74693865,0.83989495,-2.4576554,-0.5047486,2.5781825,0.7258724,-0.37530318,1.7300571,0.34015656,2.5592444,1.3997964,-1.1920881,0.664323,0.36723444,-1.5276678,0.033171963,0.4560536,0.8406563,-2.7060418,0.79934525,-1.3486631,-0.19234672,-0.9332952,-0.8450075,-0.2441199,-1.5548661,0.39048237,2.4063344,-1.6850978,-0.74807763,0.1218722,-0.03701173,-0.5077969,-0.35030472,-0.03626112,0.12634806,-0.44551677,2.4730597,0.95585185,-1.6601365,0.614822,0.87686145,-2.2187397,1.5549366,1.296037,0.9444777,2.184194,1.3122387,-1.2353957,-0.82099646,0.7604291,-0.85281837,-1.9499913,1.1799428,2.0649147,1.881644,1.8268836,3.0830984,1.3689597,0.9118702
Erythromycin,-1.3148757,-0.66070664,-0.603454,-1.2510743,-1.3920693,-0.41037208,-1.5027819,-0.6340878,1.9914553,-1.3477596,-1.8343673,0.7625282,1.2517866,0.69634444,-2.0290132,-1.2043169,0.3702336,1.102534,1.8900247,1.0624578,0.43746316,-0.44605726,1.1864986,0.82446563,0.10783116,-0.7861814,-1.8956512,0.27680755,-1.0202355,-1.6411998,-2.1041288,-0.9686181,0.31917688,-0.028591348,0.6867089,0.21963818,-1.0963705,-1.0778661,1.5534751,-1.7203997,0.36627293,0.4600228,-1.7688497,-1.5578213,-1.1235245,-1.3095583,0.88696146,0.016833581,-0.50320876,0.088290885,-1.8023386,-0.038830083,-1.1217386,-1.2455883,0.89767367,0.3031107,-2.2372594,-0.07817844,1.1152828,-0.33495852,2.1113331,-0.4026804,1.9951513,-1.604697,-1.609736,-0.24529007,-0.9991779,1.7372284,1.6460439,-1.7108314,-0.14840814,0.06976387,1.0480571,-0.5296921,-1.6158553,-0.9064148,1.3565278,-0.28713253,-0.7218744,-0.48170295,-0.5815666,-1.1910139,1.2415843,1.587364,0.85774183,1.4765031,-0.0689817,1.6264377,-0.09599595,1.2541862,-1.1001455,0.017355276,-1.7003981,-1.7038132,-1.3507175,-0.7568772,-1.0172849,-0.83243966,-0.8796924,0.117167406,-1.4696964,0.073611714,-0.6373155,-1.1730503,-1.0209707,1.2662951,-1.1996865,1.6850747,-0.6242908,1.4255325,-2.1421688,1.2106928,-0.9975607,0.029832363,-1.1680233,1.3529495,-0.07704874,1.3853587,-1.2517483,-1.1740671,-1.877199,0.74951226,0.14115286,0.2583657,-1.0662721,0.67008215,-0.5286333,1.7436041,-0.76028407,0.12445677,0.66939723,2.18552,0.5741606,-0.24982183,0.79964274,-1.8754328,-1.6427227,-1.0146322,0.56266886,0.39531934,0.3217586,0.29546162,-1.5284927,-0.6130279,1.5813533,1.5090487,0.24579231,1.3438692,2.178658,-1.6792556,-1.0066966,-0.11724931,-0.48712733,0.5010491,-1.2737001,0.35606652,1.7771497,-0.28202945,-0.7037649,1.5446801,-1.1319505,-0.1968962,1.3483757,-1.7494342,-0.5173041,1.4219601,-1.2507502,-1.1586586,-2.4817216,-0.84685487,-0.26370978,-2.2304006,2.0902612,-1.8331281,1.0506146,-1.2151183,-0.9244445,-0.94182795,-1.2417307,-0.84811074,1.2788033,-0.30218998,-0.13294385,1.2454811,0.49158925,0.8644346,-1.0168751,-1.6267692,1.4137586,1.2182363,-1.4514395,-1.7282274,-2.2611506,0.040133264,1.6812913,-0.22615841,1.1707453,0.33420965,-1.5375346,-1.9469289,-1.5152587,1.7732271,0.7212246,-1.7151511,0.5715744,-0.61717176,0.12670936,2.0850952,0.5338022,-0.4003643,-0.38266146,2.4400377,-0.6288219,0.020274643,0.18714727,1.1728727,-1.8725463,1.1557343,2.114047,2.2592683,-0.71754754,1.7253304,-1.0730537,-0.4585636,-0.34215534,-1.3464117,1.7665043,-1.2677363,0.8654347,-1.465437,0.5180685,-1.0264242,-0.69139785,-1.7613407,0.52075607,-0.9946258,1.6137444,-0.67954475,-0.3930193,-0.9681885,-0.16460083,1.9447577,-1.441136,0.14207327,-0.80237913,0.0453694,-1.7532926,1.8789967,-1.2340319,-0.89336985,-1.2649109,1.8667006,-1.1968579,-2.4733267,-1.1290786,0.46389422,-1.6946573,-1.3669115,0.6454565,-1.1589434,0.94118744,0.011141302,1.2602093,0.58589876,1.1032952,0.025198821,-0.13735838,-0.6563852,-1.9530395,1.5233539,-1.798337,-1.1937732,1.932351,-0.22960892,-0.5544586,2.2000258,0.62572145,0.6075267,0.6170121,-0.86871046,-1.3406291,-1.6301556,1.6058152,1.402327,0.6091743,-1.0500052,-1.7471149,-0.84239644,0.29224712,-2.2998881,1.6508114,-1.4284701,0.43847042,-1.792905,-0.093212634,-0.8579533,-0.5968553,-2.26877,1.2074292,0.50813735
Tetracycline,-0.89316726,0.02500922,-0.70706344,-0.22880386,-0.11256109,-0.6297849,-0.3360015,-0.649217,-0.10968489,-0.08825432,-0.8487534,-0.6118905,-0.3010407,0.4496409,-0.893327,-0.17160922,0.44309005,-0.7116089,-0.03623318,-0.29628012,1.8784357,-1.3918598,-0.24282643,-0.7326706,0.46399793,1.8654255,0.092305385,-0.88842523,0.2705113,-0.62445885,0.49459386,-1.1889474,1.047413,0.95795196,-1.3440865,0.10816207,0.44259545,0.6832027,0.6409296,-0.37867433,0.040914707,0.2662385,-0.07088003,0.15247828,0.16205785,0.47022435,-1.7241855,-0.21179552,0.92065257,-1.3254138,-0.79089195,-1.0265294,-0.99498683,-0.9876036,0.8113896,1.1290919,-0.4932356,0.70300627,0.16103108,-0.15577811,0.97710866,-0.31103268,0.09223774,-0.009597228,0.13991219,-0.21374539,-0.61078095,0.46599716,-0.6922018,-0.44478196,0.26943976,0.6673195,-0.094683275,-0.779598,0.30678377,-0.7793229,-0.06705548,0.87554854,0.64626133,0.44073278,0.27758446,0.98796296,0.36931917,0.49226165,-0.018963436,-0.43009084,-0.556231,0.9424041,2.201204,1.046983,-1.0603538,0.4940878,0.9679895,0.27559814,0.39370757,1.5577403,0.32843465,-0.20944834,-0.41894546,-0.6774513,0.28634602,-0.104426265,-0.6781858,0.5904672,-0.83718175,-0.4093976,0.17955868,-0.5549223,0.18166816,2.0244741,0.36334887,-0.2262609,-1.6573768,-1.5387018,-0.5505695,-0.61081374,0.60614973,0.7969414,0.067901194,1.0839493,-1.2586706,0.30531672,0.15116164,1.3472552,-1.2987374,0.5873571,-0.5497548,0.30910033,-0.74114937,-0.7510464,-0.2169079,-0.33941638,-0.3661614,0.4722792,0.26754254,0.4238561,0.6155605,0.2991943,-0.9892305,-1.5340731,-0.5299694,-0.28924373,0.7856024,-0.26850328,-0.49963838,1.3752042,-0.3506487,-1.0771275,0.14216809,-1.0621221,0.24808541,-1.4283181,-0.59233433,0.25213754,-0.013944306,0.4257752,0.68084913,0.02371996,-1.1221472,-0.6825737,1.4666134,0.43819204,0.3754692,-0.08210393,1.1879815,0.085971065,0.060939893,1.1367866,-0.3462897,-0.7143565,-2.226686,0.122587726,0.6546063,-1.1889995,-0.06356893,-1.5252391,-0.6176128,-0.7031222,-0.7541289,-0.1877351,-0.40663505,-0.9406415,-0.49168122,-0.47627452,-0.98631185,-0.40649357,-0.292981,0.60753953,-0.044369444,1.3096162,1.1092025,-1.3837281,-0.6322288,-0.58201337,-0.4667614,0.9470068,-0.29700518,1.0018679,-0.9010882,-0.8955104,-0.03225937,-1.1857059,0.08815036,-0.5121266,0.768947,0.251995,1.5731188,-0.11864188,0.2900659,0.7942525,-0.82304937,0.21778044,0.5875054,0.2878124,0.9110501,-0.9497948,0.5621171,0.11497958,0.42852077,0.96002656,-0.08095265,0.10151736,0.45238125,0.23125014,-0.21515535,-0.2329551,-0.056824155,-0.24583477,0.4210485,-0.05733126,1.0507649,-0.96620613,-0.1806959,-0.7848908,0.6368341,-0.6709106,-1.4967248,-0.69987416,-0.8771621,-0.62477887,-0.35230443,-0.15743476,-1.4324077,1.0274923,-1.6067153,-0.90290457,0.7396118,-0.41990378,0.21763515,0.31415498,0.8395055,-0.23045129,0.39480472,0.024423936,0.2746162,1.3326982,0.41898426,-0.46015036,0.67507046,0.48945293,1.3626806,0.25648388,0.20110823,0.6721057,-0.30071974,0.8154774,-0.5876642,0.1673592,0.3242912,0.5951057,-0.5478146,1.1645552,0.30318016,1.0835159,0.81719863,1.7082046,1.4375027,0.1151637,-0.10309784,-1.0250568,0.36592683,-1.9747639,-0.62012017,-0.31428945,0.25185764,0.72668153,0.13394937,-0.34680992,-0.89183825,-0.41091403,0.58303416,0.7602733,1.5359658,0.1861992,-0.7010331,-0.7963741,-0.22201486,0.35004845,-0.8510842,0.27554715
Fluconazole,2.0228536,0.34064603,-0.7545098,2.231034,2.2092721,-0.62461495,0.64917666,0.2574255,-0.99142855,-1.4748644,0.62907594,1.1994922,-1.5267689,0.51319045,-0.18125415,0.911358,-1.7932158,0.89156574,-0.6008535,-1.8331364,0.26881602,1.8762971,-1.6383566,0.8722879,1.1289568,-0.36913604,0.33722922,-1.829591,-2.3035858,0.73011625,0.2654242,-1.2664268,-2.3022215,-1.7890137,-0.9604763,0.83754843,-1.0566325,-0.1348791,-0.14789666,2.2317789,0.045688435,-0.58747363,0.6907063,1.074846,0.9118584,-0.24079661,-0.46102622,-1.2541711,0.5605061,-1.1191467,2.9451718,0.77336246,-1.5410894,1.268859,-0.35496032,-0.76739776,-0.76453567,0.41919437,-0.1689626,-0.22784773,-2.4766963,-1.0664068,2.5056782,2.2016137,1.9176992,1.8274405,1.0730162,-0.7079961,-0.41998842,0.08451001,0.32810652,-2.6690233,0.50071394,-1.7482432,-1.5262163,1.9964794,-0.88379997,1.9121839,-0.63218844,1.4106116,1.8258709,-1.71441,0.14622636,-0.033922255,0.5064742,-0.4934759,1.1405033,-2.0783126,-0.41114128,-1.8623785,0.10168685,-0.38356322,0.15765601,1.0188558,-0.35154915,-0.9217809,-0.09813399,-0.17941348,1.781197,-0.9898005,0.45849124,-1.1699836,1.8876863,0.38983777,1.0011476,0.81191266,0.3550168,-0.12029264,0.7399609,-0.9066524,0.85971636,1.5866244,2.7209828,-0.8476652,-0.09790492,0.10210475,-1.0176651,0.1304199,1.0767823,0.023003343,0.26839668,-2.1788929,0.43949378,-0.66019887,1.3590854,-0.68135995,-0.8005789,-1.1178598,0.89130664,0.32851347,-1.9530052,0.23132889,-0.62648696,-2.2530935,-1.1865263,1.9118901,0.14679104,0.36701635,2.2447474,1.2956537,-0.0073525663,-1.9445235,-0.14211066,0.5496585,-0.8180503,0.16497883,-1.2035011,0.3762885,1.0532684,-0.13066973,-0.8789641,0.014038289,0.36447987,1.522718,2.171908,-0.50296056,-1.6249268,-1.7525333,0.10495201,0.5039282,0.1114868,-0.5653599,-1.0249426,1.1571146,1.528033,1.4044553,1.2954341,0.9887335,1.2353983,-2.384787,0.63609415,-0.2496505,-1.0835335,0.93446356,-0.67298603,1.543707,-0.7261115,0.56646353,0.67281866,0.30212203,1.7711332,0.8822613,-1.6844808,0.7116124,0.8916283,1.2487615,-1.0886939,0.90800637,-0.99838924,-0.78784317,1.0611011,1.1797032,0.8309506,-2.1387565,2.0333185,-1.3548596,-0.49618745,0.37785542,-0.512567,2.4640803,1.8994459,2.6622887,-0.5595677,1.3062695,-0.6936259,1.1230049,-0.9231413,-1.311591,-0.6103034,1.6086508,2.1018121,-0.44675633,2.4165146,0.18737109,-0.9138574,0.46333888,1.5982839,-0.15531293,-1.6063954,-1.261211,0.61311066,-1.4610926,0.66034764,-0.5632952,0.6027896,-0.12545463,-1.3899994,1.5010749,0.28289092,-0.018838232,-0.13410884,-2.0083704,1.131361,0.31574202,-1.6633613,1.0928055,0.6671932,1.8882658,0.003937805,-0.47299433,0.16954128,-1.0015048,-0.4897507,0.032305222,1.4089086,1.9101436,0.54212725,0.93452734,1.0093789,0.2550436,2.6686275,0.4812813,1.5633755,-0.14392848,0.9859083,-1.06742,0.23412773,1.7032362,-1.2595026,-0.9841395,-1.0566,0.14807408,0.48106465,-1.2318938,0.46642512,-0.90761423,2.734975,0.2651088,0.076319836,-1.0113442,1.224383,0.21556023,-1.2260535,0.10483685,-1.6718476,-1.5097712,-1.1592424,-1.3723828,-1.345224,0.079706386,0.942495,1.1030784,-0.76394373,0.6648844,-0.800559,0.10803244,1.3285389,0.8798805,-0.39284053,0.25235742,0.4980909,-0.13285592,-1.4495767,2.16523,-0.60114694,1.3473198,-0.24931896,2.001928,1.1532664,-0.48071387
Amphotericin B,-0.49018645,-0.5505349,1.3966972,-1.8508215,-1.9517657,0.39933923,-0.8537847,-2.0102062,1.1075948,-0.41507304,-1.1544751,0.5519577,0.6161172,0.039673157,-1.242418,-1.3322581,1.5295937,-2.0334952,2.1002374,-0.7264456,-2.069499,-1.494507,2.3068821,-0.39641348,0.71004266,1.3399427,1.0806644,1.3778591,0.19878404,-0.14955062,0.23778994,-0.78794837,0.051091187,0.011830004,-1.5822303,4.4387383,0.80336654,0.38230583,2.1010804,-2.3871348,-0.85984176,0.2787349,0.053451624,-0.39774328,0.22731796,-2.998689,-1.4633651,-1.327956,0.957031,-0.085020214,-1.3864559,0.10725302,-1.7169375,0.4600676,1.3261247,2.0780509,-1.6513448,-0.888983,0.55362165,-2.03495,0.83978873,-2.5014732,0.9970284,-0.9490199,-1.2026423,-0.38074163,-1.8881156,1.2407357,0.16074517,-0.79618454,1.18224,0.74010694,-1.3647126,0.23582761,-1.154752,0.16300574,1.9613972,0.0748233,0.5783936,0.32243213,-0.49237758,-0.05387569,-1.4758745,1.0714691,0.19266365,0.053516783,0.37172896,1.0056449,1.0349516,0.5746384,-2.244314,-0.6997748,-1.1357961,-2.02986,-1.5119758,-0.8768928,-0.7902771,1.2351445,-1.6928518,-1.1792737,-0.2927288,-0.9074135,-0.09693831,-0.06699482,0.28467473,-0.40178305,0.46492782,-0.32843474,-0.42524147,0.23717675,-1.2678435,1.244783,0.9923755,-0.15360183,-0.6677018,0.6766134,-0.14372438,1.6811988,-0.90829885,1.4510621,0.111402094,0.20641275,-0.31983417,2.0722053,-2.3650174,1.7396168,-0.095466875,0.3311634,0.5076957,1.6662228,-0.34255308,1.6146947,1.2078398,-2.4940617,0.28207797,-1.1123792,0.096463084,-1.3313637,-2.0796642,-0.14801109,0.6388605,0.7600044,0.21347967,-0.8552473,-0.16588327,-1.7256234,0.3777508,0.74428105,-1.2207913,0.58323425,-2.748815,-2.3822262,-0.19247608,0.5168344,-0.69449204,0.14418124,0.8875856,1.6360297,-0.43771836,0.546211,0.7571072,1.7461249,1.8299073,-2.5853148,0.15250106,-0.64049894,0.81042105,-0.13943833,-0.4869767,-1.2736981,-0.3278584,0.7458198,1.937037,-1.4225826,1.189951,-1.1044216,-0.26848397,-1.1609479,-1.3549737,0.0397296,0.5453852,-1.0377691,-0.3941726,0.20234187,-0.75193715,-1.1049415,1.8741922,1.2403874,1.0056709,-0.027011752,-0.0035829109,0.08502235,-1.2000408,-0.02129633,0.76245725,-0.5414382,0.030634688,0.19586937,-0.8305494,-0.33245316,-1.1902989,-0.98793983,0.6883686,-0.43658286,-0.5253277,-0.19490772,1.1022476,1.406178,1.6353402,0.8619051,-0.5678256,-0.5108672,-0.30592868,2.5539417,1.884222,1.6979716,-0.78920835,1.37074,0.6209163,0.10898223,0.25906354,1.8796327,-1.1992142,-2.2252753,-1.8993331,-0.9421901,-0.559315,-1.8428725,0.0049603577,0.29088727,0.7763952,-0.8283413,0.011177498,-0.94698256,-1.5294688,-2.084815,-0.21761018,0.26736572,-0.036618907,1.0592464,-0.75098085,0.7914968,0.04769218,-0.41643262,-1.0913006,-0.6076988,-0.016992124,-2.7850966,-1.3408265,1.0462195,2.5527663,0.8990079,-1.3018438,-2.1879783,-1.3589606,0.0116954725,-1.2287395,-2.7791877,-0.012193978,-0.07531407,-0.27084276,1.2361642,1.8896804,-0.5828536,0.49405876,2.0243547,-1.4535389,-0.7617881,-0.189104,1.0690693,-1.6754262,-1.1866319,0.0127704535,-0.22807604,1.3142627,0.6882197,1.2491577,0.13915913,1.0229262,0.52713895,0.66314036,-1.974178,-0.074726686,-1.3456448,-0.9377266,0.039037365,-1.4557649,0.4049364,-0.1703415,-0.8590268,-0.61156225,-2.069366,-0.27909163,0.15459748,-2.1111982,-0.5876622,-1.1404543,-1.4828676,-1.4490415,0.3679764
Caspofungin,0.31099796,-1.4301171,0.29137582,0.16769601,-0.18602684,0.038450148,0.19640915,-0.3152664,0.1416293,0.14042239,-0.8434967,-0.24972965,-0.2176733,0.08305316,-0.50998855,0.26520574,0.7414677,-0.7661441,1.0850974,0.39942262,-0.29203132,-0.95127434,0.11637707,0.16960725,1.0642072,0.12172224,0.38342777,0.25125328,0.0789614,-0.19333546,0.48509622,0.18331799,-0.17600963,-0.28069514,0.4862089,0.70013505,-0.21371575,0.19377925,-0.34226164,-0.1108921,0.5650662,0.8185108,-0.2175462,0.63619345,-0.5253249,-1.1891116,-1.2797774,0.3498367,0.0148617355,-0.31813195,-0.53215075,-0.06522943,-0.43982857,0.11269881,0.4859975,-0.033560712,-0.3894421,-0.9982937,0.2789645,-0.1402977,0.3210054,-0.21193254,-0.12989137,-0.77430916,0.44372562,0.20287248,0.045146707,0.14648402,0.93089056,-0.5240901,-0.4178719,0.3467165,-0.13779648,-0.034444872,1.216196,-0.64679956,0.02381275,-0.08619458,0.52922016,0.09265732,-1.0691096,0.2437044,-1.2444153,0.02613703,-0.37957183,1.1031961,-0.3750881,1.2378069,0.7534342,-0.34459737,-0.843508,0.76836324,-0.52373457,-0.55369043,-0.3753268,0.8984034,-0.89277023,0.27247897,-1.0357947,-0.017794857,-0.29488406,0.031093754,-1.1639168,-0.34674907,-1.46033,-0.8756497,0.20152572,0.69840074,-0.3527223,0.027616138,-0.1439145,-0.2725056,0.5247766,-0.08485422,-0.25110945,0.43152553,0.29438013,-0.28565478,-0.9062915,-0.16543365,-1.1228414,-0.51376504,-0.91950446,-0.17380406,0.55098724,1.0088257,0.24822222,0.56065506,-0.91111356,-0.14172566,-0.5227094,-0.22914536,1.7061462,-0.23391819,-0.2584827,-0.8928983,-0.40975705,-0.6911039,-0.9242268,-0.18337333,0.33673054,0.3959963,0.9282097,0.7895872,0.35884792,-0.4070899,0.9163092,0.856842,-0.9400073,-0.30532074,-1.0146018,-1.3817874,-0.32636687,0.19352755,-0.58849347,0.23910859,-0.032426454,0.46559173,-0.69706607,0.28981742,0.009010783,-0.40313536,0.09739099,0.4941916,0.30651286,-0.41387996,-0.568297,0.49010473,-0.08684377,0.538761,0.014891229,-0.10416061,0.5027098,-0.25194067,-0.49927777,-0.8009376,-0.7949341,0.119999036,-0.12114284,-1.6000675,0.5210796,0.41575915,-0.74356055,-0.678329,-0.30209094,0.23907164,0.47855294,0.32213372,-0.07156829,-0.7106163,-0.45144224,0.42799965,-0.6151304,0.30258074,-0.35885754,0.037084777,0.23747668,-0.2320299,0.23868474,-0.08329215,0.037329704,-0.6243959,-0.8422408,0.27336365,-0.85300523,-0.4595146,0.68204707,0.11663388,0.21456143,-0.44370854,-0.7826896,-0.61085796,-0.27875733,0.5034331,-0.061783124,-0.98819935,-0.5175976,-0.51693654,-0.031395085,0.14006309,0.14532945,0.8774088,-0.68624866,-0.17693372,-0.82153505,-0.40278158,0.20715277,0.10965705,1.1164858,-0.21060382,0.1617899,-1.0946338,-1.2490749,-1.0782309,0.48659053,0.020578204,-0.5479518,-0.24886082,-1.0306264,1.206267,0.23342097,1.0323433,0.20513721,-0.030563673,0.24824277,-0.08539908,-0.50072134,-0.46973145,-0.620666,-0.09059251,-0.28633735,-0.4972783,0.09732165,-0.2792578,0.5428578,-0.072997645,-0.4284293,-0.6792802,0.35877523,-0.3364954,0.001954604,-0.79406303,0.15014823,-0.44566992,1.3691869,0.42786017,-0.6970367,0.15122572,0.6700239,-0.18994023,-1.0702931,-0.48851678,0.08533943,0.6291694,0.52920353,0.19124076,0.4462654,0.38456315,0.19857305,0.71551174,-0.72834027,-0.58626765,0.252981,-0.029819854,-0.27339637,-0.055816203,-0.09593484,-0.48479366,0.32790446,0.035064645,0.24974214,0.17148624,-0.037730105,-0.6138702,0.4071035,-0.37501928,0.15714975,-0.36183903,-1.1104476,0.55337054
Micafungin,0.041023735,-0.3471543,-0.42373437,1.0696442,-1.4136957,0.46310824,-0.43247378,0.23934183,-0.9674028,-0.5047368,-0.6593104,-0.5309279,-0.16664234,1.100637,-0.40043244,0.34950125,0.65074885,1.0704684,0.7529716,0.4918024,0.23473336,-0.06514695,-0.26758736,0.7399312,1.2653608,-0.7424282,-0.94531155,0.05306242,1.1877391,-0.0759408,-0.6198214,0.7746171,-0.461398,-0.39376494,1.5417806,0.6701094,-0.4803275,-0.6423916,0.32695502,-0.7455385,1.0544645,1.2069479,-0.16372876,0.28430805,-0.70129627,0.01694459,1.1898036,1.7094672,-0.91336584,-0.6241288,-0.6004449,-0.3972842,0.8245054,-0.41197756,0.73421764,-0.64295995,-0.03482909,-0.020195428,1.0470934,1.230838,0.7107742,1.2832111,0.1946877,-0.98147583,0.0042595235,0.4999035,0.6485288,0.32764956,1.4584758,-0.84139436,-0.067656994,-0.24154665,-0.18201745,-0.8261078,0.9337457,-0.5324291,-0.09866854,-0.24322578,-0.21098079,-1.0107313,-1.039551,-0.2722411,-0.19328412,-0.043860395,-1.3502758,1.39147,-0.915737,1.6142756,-0.9732286,-0.2988929,-0.34345397,0.82143664,-0.6713656,-0.0370322,-1.2245872,0.6442756,-0.49805886,-1.2345814,-0.38334194,0.9049913,-0.6271329,-0.23251007,-0.9468235,-0.64086753,-1.2281721,-0.6378614,0.78971887,0.7257384,-0.48186338,-0.4474442,-0.35355112,0.043108575,-0.3616265,-0.07242166,-0.70471525,1.0975342,0.30556226,0.54524904,-1.4628017,-0.46921057,-1.1068164,-0.79231995,0.0953763,-0.49762073,1.0099556,0.2144277,0.1755618,1.5925126,-1.6497273,-0.4921986,-0.4000501,0.12348719,1.0427029,0.06446974,-0.81544757,-0.9685975,0.20554894,0.38555965,0.16008608,-0.3859487,0.19156744,-0.08552708,0.4497076,0.5949227,0.1113244,0.31345373,0.6126232,1.0652157,-0.3635161,-1.431062,-0.5159489,-0.88381773,-0.92817616,0.9789023,-0.6528886,-0.91704303,0.6349857,-0.5612005,-1.1300023,1.0554852,0.040691912,-0.6164914,-0.61689854,0.41500893,-0.3442191,0.3254872,-0.3264441,-0.11082172,0.106735386,-0.22797059,0.24142209,-0.037915874,0.6044429,0.034224432,-1.4888785,-1.3872342,-1.3244109,0.97088957,1.0722121,-1.9092634,0.13963027,0.75134444,-0.8859621,-0.059314907,0.61770624,0.8616558,-0.53044623,0.16411501,-0.004727242,-0.3814543,-1.0021052,0.18007807,-0.6216257,1.1256304,0.07772327,0.50441206,0.7227419,0.79155606,-0.07738329,-0.31758294,-0.055645272,0.15950704,-0.21396293,-0.4828879,-0.939926,-1.0166014,-0.40289935,-0.22069953,0.01863537,-0.19937228,-1.8304623,-0.044575516,-0.06676195,-0.54573804,-0.32402694,0.3568159,-1.2337203,-0.8986568,-0.043289214,0.29597744,-0.5872644,0.08933397,-0.5328051,0.6047208,-1.3791229,-0.16671044,0.39848477,0.42575967,0.51104236,-0.16283602,-0.4055241,-0.7216297,-0.8181173,-0.49457106,1.1248466,0.7818509,0.06101659,0.32088587,-1.0370644,0.47183153,1.1801552,1.3381625,-0.33653033,0.020700818,0.8698954,-0.24804114,-0.27168185,0.14356157,-0.53364027,0.16110452,-0.53574526,0.6158521,0.598215,-0.3196556,-1.000856,0.0027108807,0.2772329,-0.53343135,0.29922503,-0.8134665,0.35808346,-0.72486526,-0.55150247,-1.1352608,1.5871011,-0.10820018,0.7720752,1.3447958,0.40916154,-0.77631617,-0.8050889,-0.09193813,-0.5815036,1.0529526,0.3042419,0.28398287,-0.39629564,0.34971023,1.1985898,0.79806226,-0.7025925,0.015780373,0.5956412,0.5214127,-0.6634131,-0.33771738,-0.217014,0.497065,0.018046575,-0.7799324,0.122824654,0.2016669,-0.065661244,-1.1281089,0.69811064,-0.79116774,-0.49553204,0.124187395,0.29185864,0.3446519
Anidulafungin,0.17940271,0.038581923,-0.9295044,1.0453727,-0.6041447,0.961892,-0.43477044,1.0476227,-1.1521239,0.12761308,-1.062466,-0.86847895,-0.2717015,1.6535195,-0.65675443,0.5638133,-0.038239103,1.2810816,1.0551261,0.28949577,0.5993563,0.3194141,-0.5251496,1.5587035,0.62577355,-1.1602185,-1.1944115,-0.35619098,1.4995675,0.33871695,-0.9279275,0.936266,-0.5418687,-0.5538329,1.5909834,0.19057998,-0.78743255,-1.1843826,-0.03695722,-0.5658423,1.4058858,0.66742563,-0.48527485,0.3078544,-0.2468683,0.24742699,1.7912153,1.7706451,-1.1665852,-0.03722521,-0.557043,-0.2103063,1.1111419,-0.5350159,0.32972518,-0.29939303,0.24773592,0.38979253,1.2610217,1.0764554,0.63432854,1.403457,0.78089756,-1.1073726,0.064290956,0.78026915,0.92726463,0.27932608,1.2900301,-1.1080114,-0.93740624,-0.32221594,-0.28836718,-1.2663221,0.25754064,-0.6402227,-0.08664009,-0.47893292,-0.92861843,-1.2634472,-0.8087205,-0.73611695,0.45949766,0.08833369,-2.076816,1.4234002,-1.074547,1.6465518,-0.74604666,0.11573944,-0.91949385,-0.31843054,-0.50994015,0.5711502,-1.420931,0.8967834,-0.8049622,-1.4207513,-0.38188046,1.4530759,-0.91211945,0.04717849,-1.3708481,-1.3067373,-0.8900784,-0.92757386,0.86051124,1.4243847,-0.0817665,0.18024507,-0.47454944,0.8891495,-0.86988497,-0.52604216,-0.50814134,1.0957235,0.3930016,0.52744406,-1.6510218,-0.8025537,-0.9777739,-0.938862,1.1173978,-0.27481607,1.1521226,-0.45448953,-0.22661272,2.0364037,-2.0634475,-0.37024698,-0.40239054,-0.120830804,0.352736,-0.47684684,-1.3101745,-0.8474333,-0.064658165,0.26872674,0.7902448,0.7818906,0.016407203,-0.14037308,0.2753737,-0.2930418,-0.2500124,0.9179292,-0.40667084,1.7943946,0.37480962,-1.4681376,0.087214686,-0.12745832,-1.0792325,1.4568597,-0.59590894,-0.7713584,0.3865028,-1.3270316,-0.971046,1.4866952,-0.067237936,-0.8825159,-1.0834813,0.8374462,-0.2378713,0.7377756,-0.9006109,0.4384206,0.5458849,-0.86348015,-0.33330047,-0.13763857,-0.096116684,-0.34013203,-1.4195485,-1.1599749,-1.9444917,0.9318301,1.436231,-1.6243517,-0.10628619,0.6355178,-1.414206,0.26003274,0.6073759,1.4838098,-1.1697288,-0.44995278,0.16780272,0.09612214,-0.8644014,0.087760314,-0.7932371,1.3464719,0.05816291,0.7037561,0.42206368,0.74206984,-0.75309503,-0.54697436,-0.04771733,0.58722293,-0.4576696,-0.8234652,-1.3717265,-0.46891537,-0.9296235,-0.5845801,0.1126247,0.006962351,-1.7121055,0.1283087,-0.10794304,-1.3954563,-0.9674722,0.35400158,-1.3001052,-1.4069191,0.001462515,0.54859203,-1.1946528,-0.26015443,-0.28398564,1.4303371,-1.2757236,-0.541883,0.59913343,0.429806,0.99316627,-0.18383497,-0.6387406,-0.5904334,-0.89134204,0.14338277,1.2944396,1.1793512,0.03369481,0.37233287,-1.4752599,-1.0603578,1.7926552,1.526247,-0.86456025,0.51169217,1.0768294,0.10050668,-0.5700063,0.7367516,-0.19948506,0.49621594,-0.18830988,0.6241138,0.45449406,-0.29459888,-1.0537453,-0.3623056,-0.117622465,-0.075893775,0.50744927,-0.9468201,0.6634241,-1.0475242,-0.6934194,-1.2136613,1.5748445,-0.50688773,1.5756936,1.5524281,0.11047207,-1.129477,-0.4849197,-0.38856408,-0.6613933,1.6932988,-0.37840998,0.5697573,-0.89028513,0.32011575,0.6585408,0.26735163,-1.1780213,-0.1104515,0.1520439,0.8981216,-0.6575979,-0.35627854,-0.13328244,0.84951395,0.18044499,-1.0879837,0.66135824,0.4637351,0.2508892,-1.4163845,0.4191449,-0.5317898,0.22191621,0.3609152,0.2199565,1.7101487
Itraconazole,1.8084929,0.69461966,1.3456573,2.9978876,0.29367897,-0.098153025,0.15050487,1.4222053,-1.6634967,-1.551365,1.3070062,0.9761865,-0.103781134,0.35387993,-0.5297216,0.22492371,-1.1971056,0.82553816,-0.29233566,-1.2235554,-2.1410537,0.5005106,-1.5004629,0.6394186,0.880144,-1.5437335,1.9469942,-0.6996182,-1.6417135,1.0694246,1.8426049,-0.53422517,-1.4812236,0.15681921,-0.1406175,1.5622525,2.0600336,0.5902232,-0.3000377,0.40617096,0.676537,-1.5610882,1.0111338,1.5043305,1.4500271,-0.22783527,-0.09347186,0.93999994,-1.597873,-1.1053135,0.9610523,0.27459392,-0.4096122,2.0193808,-0.053980682,-0.63886106,-0.5231666,0.6279404,0.56276274,-0.011857589,-1.9645916,-0.7552383,1.0330466,1.7233485,1.8815616,0.9567117,1.2719033,-2.2517028,-0.0034316557,0.07122624,0.6873709,0.1477591,-1.4790602,-0.5875019,0.69901884,2.8604138,-0.9088346,-0.569584,-0.63376033,0.7852057,0.96008456,-0.1254861,-1.3841757,-0.6123242,0.7981408,-0.85516834,0.7444277,-0.12631448,-0.5369293,-2.554844,0.1685819,-1.131047,1.3396502,-0.084530324,-0.6536413,0.19971402,0.93343145,-0.55789846,0.6886141,-0.16333407,-0.30059174,-1.0218714,1.0816698,-0.4718697,1.9798982,0.4147187,-0.31872448,0.16433695,0.52194023,-1.3400527,1.2016643,0.050802764,1.5421574,-1.1098927,-0.19918206,0.13250138,-2.1940856,-0.19686402,0.5309153,1.1973797,0.84654295,-2.0209608,1.1915113,-1.1552291,0.4173663,-0.8943548,0.3757556,0.2649408,-0.24212638,0.6488846,-2.0115516,-0.24604566,0.90983504,-1.815828,0.046859737,0.16664344,0.6361602,-0.12716417,2.0446362,1.6468554,-1.0958961,-0.31611362,1.4667468,0.9797335,-1.5589669,-1.695291,-0.3603673,0.25020733,-2.1308796,-0.17210786,-0.16557479,-0.056338307,-0.098643094,0.89417535,1.6429694,-0.19860764,-0.6537993,-1.4416409,0.2271258,-0.56550944,-0.3677706,-0.9943178,-0.8177748,1.7508268,1.0144331,-0.5120934,1.6493753,2.3367805,0.41028935,-0.5419919,0.7435603,0.043672077,-1.7312958,1.9749172,-0.7588629,-0.011916213,-1.3451328,1.4764628,0.30278426,0.52273375,0.31654936,-0.5438752,-2.302582,0.3413047,-0.5120185,0.16720863,0.8519477,1.548613,-2.4393263,-2.760764,0.3924291,1.7079911,0.4277151,-0.068531476,0.98408794,-1.8052521,1.1289442,-0.66906965,-0.6945601,2.044809,1.7230964,1.8777908,-2.7984362,1.6867524,-1.6313721,0.86178964,-0.59544384,-0.9702105,-0.3363117,1.9758135,-0.35648698,-1.9603865,2.563181,-1.3367857,-1.4943095,0.40844744,1.0383507,-1.1248202,-1.5337021,-0.8558991,3.1578984,0.31530935,0.7222423,-0.8774465,-1.2908592,1.2572427,-0.9601589,1.0615582,-0.296337,1.0124528,0.8978894,-2.0295353,-0.2025489,-1.3127823,-1.4017549,1.1055254,-0.74838245,1.7487351,-0.6172608,-0.9964126,1.9488099,-0.64043385,-0.27778232,-1.0594524,1.3298572,-0.33917755,1.6111174,0.6766104,1.7163278,-0.95299524,0.8460378,-0.034865882,0.84120303,1.1537296,1.3428272,-2.2157168,1.2030613,-0.86786586,-0.5710098,0.42829138,0.06424512,-2.1677315,0.254719,-1.0808582,1.2182096,-0.19797845,2.088674,0.87164015,1.6764553,-1.7487028,1.1315489,-0.68884027,-0.9290791,0.51991546,1.1255721,-0.5851863,-1.9145283,-1.6952803,0.20209405,1.2094814,1.8956465,-0.14840029,0.11993936,-0.109543614,-0.763288,0.8062501,0.74979925,1.1575868,1.3555152,0.1918011,-1.0947196,1.4522476,-1.2121427,1.4244039,-0.5368152,0.44485977,-1.8402987,0.94213367,1.2655729,-2.148446
5-Fluorocytosine,0.16703238,-2.0614753,-2.909926,0.19770513,0.6934437,-2.2240236,-0.783595,1.5617096,-1.6634436,-3.101032,1.021611,-1.0575626,-1.221832,0.0321136,0.2143338,1.2513467,-0.7031754,0.043161925,-0.21586515,-1.2306799,1.788631,1.012716,-2.2083733,1.2732378,0.6356149,-0.31448433,1.8231345,-1.0636656,-0.9130065,3.5780756,0.6489076,1.465697,-3.7210407,0.34122038,-0.82085294,-0.24240558,-0.37245902,0.19921555,-1.3075166,0.31802246,1.1255621,0.12358445,-1.8494292,0.044502635,0.7479136,-0.5910716,0.13493344,-2.0187917,-1.2598815,-1.1246336,1.0445721,0.70281965,-0.5371422,0.2941469,1.0708795,-2.7644732,0.19185093,4.076657,0.06410855,1.0496058,-1.3641282,-2.2654214,1.7937365,0.18420775,1.6743819,-0.17420594,0.14787036,-0.60896194,-1.0054785,0.45565638,-0.55496985,-1.7945985,-1.0566489,-1.9031649,-1.6277215,1.3233145,0.11638115,2.364571,2.2833323,-0.68841803,1.2235172,-1.283759,0.47301173,-0.9041526,-0.702365,-0.7322561,-0.36652252,-1.1019236,-0.3903509,-1.8775895,-1.2416999,-0.5676462,-0.4724432,-0.30885747,-0.37410417,-0.6790522,0.8578192,-2.528124,-0.14428385,-1.3500783,1.017281,-0.33378795,1.7455697,-0.13460328,1.444421,-0.48383352,1.9733875,0.016195606,2.227436,0.48516905,1.6260177,-0.4137638,1.0893015,-0.91939116,-2.0686724,0.06720269,3.1276958,1.5199237,-0.6106283,0.8266752,1.295109,-1.439429,-0.44599068,-0.27121952,-0.029247092,-0.6367727,-3.1633215,-0.51500493,0.35449314,0.348971,-1.0973617,0.46573043,-1.5049685,-0.8779146,-1.5854589,1.0233176,-0.8774245,-0.7187234,1.6048951,-0.23951909,-0.14669095,-3.488497,1.2388924,1.5416349,-2.1348073,2.0010686,-0.49988827,0.7135797,0.4914659,0.23099057,-1.6053224,1.8564979,0.38216007,2.7457511,1.468275,-2.1816628,-2.5790808,-1.6232233,-1.573817,1.3910518,3.491661,0.31597507,-1.708781,1.1666385,1.6435555,1.7449175,-0.6897606,1.4561964,1.9526491,-1.7656484,0.1255837,1.0726676,0.71181154,1.5205026,-1.7016363,0.300011,1.012089,0.72079873,0.7114526,0.67480797,1.5976392,0.2565364,-1.2452124,-1.8136356,-0.027239216,1.8644379,-1.4811219,2.5724666,-1.6821386,-2.6567667,0.94168705,0.12579255,-0.11803096,-0.595725,1.4588965,0.11294627,-1.723527,0.16745767,-0.6701403,1.2841011,0.22229145,1.2405311,0.052591678,1.1864392,-1.8592161,1.4518673,0.12212558,-0.57392406,2.650201,0.8299933,2.0874016,0.24916896,0.4958212,1.4073247,-1.1535373,0.70542294,0.71995497,-1.9751718,-1.7408519,-1.7835591,-2.1808393,-1.4692173,1.6837338,-0.9070306,1.0567414,0.8646244,-1.3314139,1.8536944,0.2679127,1.1652607,-0.7871227,0.3269155,-0.65074307,0.7859419,-1.5714014,1.9833275,-0.01523224,-0.7510112,-0.9417291,-1.1021051,0.97326684,-0.90777665,-0.79971826,1.6667371,2.317322,0.23894353,0.89514375,-0.9753875,1.7578374,1.6028801,1.0272539,0.6048419,0.7243645,-0.72256184,2.9904819,-0.4738621,1.7101322,1.1934875,0.12454829,-0.22279197,-0.58075935,0.3897513,-0.8659055,-2.2083042,-1.1643964,-0.8373567,0.7296083,1.529863,0.5890305,-0.8116377,0.25522482,0.68697023,-2.0385644,2.1281886,-1.6675948,-2.0402496,-1.0068295,-1.1982698,-0.7852891,-1.3594834,1.5295473,0.70746976,-1.0488443,0.3854014,-3.8414319,-1.5734541,1.673259,2.2767005,0.65933543,-0.35019588,-0.51839244,0.4234354,-0.042761467,0.46036816,-1.152581,2.2295427,0.8950197,1.3365616,-1.510701,2.538765
Voriconazole,0.83959204,-0.49736103,-0.49116313,0.5353709,1.0530797,-1.8897916,-0.20237528,0.51825166,-1.5937686,-1.3918679,-0.8931776,-0.6600978,-1.7478433,0.4547853,-0.7922042,1.2214019,-1.1703825,0.08054399,0.85218376,-1.461404,0.72881246,1.5866505,-1.6414002,0.62861425,1.6191436,-0.19743006,0.92336905,-1.2876575,-1.0766418,1.2260306,0.6796518,-0.54696894,-3.2853522,-1.3653331,-0.7488927,0.5302844,-0.1921137,0.44089735,-0.5027467,1.1635177,2.0133026,0.5883691,-0.1417819,1.3378366,-0.012888827,-0.46840477,0.0900824,-0.29311106,-0.8408816,-1.548304,1.0422509,-0.51616704,-0.8604101,0.9804191,-0.25081736,-0.69247806,-0.78228587,1.8845946,1.4551929,0.30266652,-1.6126202,-1.0472945,1.7091265,1.1865798,2.0658526,1.77838,1.063423,-1.1084906,-0.42421466,-0.12168829,0.57024306,-0.7477211,-1.6480793,-3.1184318,-0.6677303,0.9803227,-0.9731053,2.2466967,-0.8741462,-0.09101403,0.13466148,-0.38661563,0.41922373,0.6935864,-0.70732427,-0.6357875,0.04967739,-0.65048736,0.17200615,-2.489329,-0.95337313,0.8567485,-0.22881049,0.6622427,-0.818295,0.22909908,0.27530515,-0.9262047,0.97774035,-0.9889869,0.5765075,-0.8812556,0.48508427,0.040155567,-0.010264974,0.17795122,1.4838762,-0.011521409,0.688161,0.42114046,1.4452858,0.43299592,0.52895707,-1.3308789,-1.3961558,0.34843415,0.73161536,-0.07177386,0.41585726,0.23224421,-0.6836707,-1.7712486,1.234741,0.20436275,0.39988965,1.0884901,-0.62852806,1.18709,0.21338566,0.75705296,-2.1757727,-0.05552632,-1.1268561,-1.9038703,-1.17605,0.7173219,0.4636559,-0.30304262,-0.0216198,0.23365976,0.19629616,-1.6049714,0.59010416,1.719298,-1.4704015,0.42521837,-0.62884045,-0.39249724,0.5879412,-0.6839117,-0.90525526,-0.95601696,-0.41396558,2.260332,1.7655063,-0.4878384,-1.6754023,-1.9278045,-0.0805152,1.6352687,1.1783124,-0.5004436,-1.0607053,1.1695728,1.2541894,0.99779147,1.6452818,1.7230529,1.1639712,-1.5026982,-0.8728048,0.56502044,-0.5964367,0.7933768,-1.1428707,-0.39173228,-1.1592019,0.58779806,1.4847308,0.21975194,1.0867581,-0.08365499,-2.7095442,1.0607274,1.0859956,0.70527613,-1.3183899,2.2987154,-2.2958772,-1.0494366,0.4325892,1.1419327,0.50378054,-1.423642,2.2956128,-0.7440028,-0.9928213,0.5155599,0.13101017,0.9233173,1.6556884,2.1398797,-1.9157358,0.34110966,-1.1757903,0.5520814,-1.3858956,-1.2301283,-0.1279648,1.088451,0.7837969,-1.3689059,1.4600137,-0.16610675,-0.5994792,0.98203224,0.6377012,-1.178938,-0.9868425,-1.0563945,0.16047868,-0.67748195,0.7439644,-0.15569715,-0.087780535,-0.59547424,-0.91618633,1.7424698,1.4979599,0.879289,-0.27327043,-1.617503,-0.3992784,-1.4051282,-1.1670058,1.0414141,0.26579922,1.3792863,-1.6219186,-1.3258438,1.2913575,0.4597907,-0.11020713,0.05399777,0.89554745,0.51952446,0.8319193,0.43550697,0.7815852,0.29420516,0.6347567,0.4237604,2.2991872,-0.06320882,1.6699272,-1.4235623,0.98788124,1.3008007,-0.92532325,-0.9402627,-0.602025,-1.5470666,0.8230755,-1.6529061,1.0023339,0.15478943,1.4308953,1.441548,1.6311915,-0.961937,0.5722658,1.1362942,-1.427638,0.79443896,-0.9428993,-1.8323681,-0.23177744,-1.4569553,-0.4261846,0.18413368,1.6747999,0.7353947,0.18089868,1.0445698,-1.5363033,-1.1349112,0.9451228,2.1629102,0.88781637,-0.37611076,0.8295094,0.45589113,-1.0804071,1.0614332,0.19902335,0.53461045,-0.310566,0.98424363,-0.5650077,1.1735544
Posaconazole,1.567743,1.3086141,1.3769913,2.2106376,0.36140642,-0.040429354,0.7814227,1.4095299,-1.7780305,-0.70426685,0.8240387,0.078495465,-0.58168167,0.78200084,-0.8744592,0.5583951,-1.2060933,0.09681676,0.018556768,-1.1117045,-2.1647437,0.49910027,-2.08754,0.8460889,1.1334292,-1.1150963,1.4688858,-0.4914474,-1.1322792,1.3067449,1.5438099,0.039779484,-1.6191387,0.4050455,-0.3900002,1.4188384,1.3475884,0.44490087,-0.6693264,0.37396136,0.96714157,-1.6896052,0.63758916,2.5335228,1.3544326,-0.39118198,-0.3649786,0.3267248,-2.1992242,-1.3918624,0.6664972,-0.7611934,-0.16560169,1.31053,0.15881646,-1.0622809,-0.45601475,1.2911124,0.5225654,0.85895205,-1.556981,-0.17264012,1.0747182,1.2316818,2.057212,0.9104687,1.4618889,-2.5092046,-0.25765693,-0.11558334,0.7501656,-0.10004228,-2.3391984,-0.93358386,0.6955641,1.9786127,-1.1778622,-0.2744529,-0.59513897,0.048757143,0.6334646,0.19965005,-1.327555,-0.8409762,-0.16634572,-0.929083,0.2987957,0.34080938,-0.13946205,-2.3739336,-0.8959163,-1.1374549,0.8193857,0.043688316,-0.38595203,0.7639697,1.0802618,-0.69222164,0.9582442,0.16684261,0.2542143,-0.9860716,0.73492956,-0.40975162,1.4352267,-0.11502308,-0.073543146,0.9185788,-0.0884967,-0.86631227,1.169149,-0.21376695,1.325468,-1.6606872,-0.14674531,0.28745538,-1.366889,-0.2101973,0.6184283,1.9086045,0.5138611,-1.9122901,0.9431225,-1.0048571,0.66174746,-0.42862344,0.010896981,0.9039199,-0.4408771,0.618959,-1.7179155,-0.37245908,0.97232383,-2.4224222,-0.24851541,-0.017575152,0.37230003,0.14929496,1.1462071,1.1261544,-1.0843887,-0.8422255,1.7228613,1.0779074,-1.8387399,-1.0050865,-0.42303035,0.23104268,-1.1485585,-0.4274672,0.2871627,-0.23506401,-0.4350677,1.2063118,1.5502154,-0.6727796,-0.9714314,-1.7308141,-0.36440274,-0.04832258,-0.028718933,-1.1405982,-0.9692598,1.9919657,1.3462061,-0.15933979,0.93663967,2.324057,0.7653628,-0.70505726,0.235133,0.05932825,-1.1761624,1.6185557,-0.8516137,-0.5950001,-1.5523759,1.4782842,0.3942527,0.48680967,0.22008729,-0.61005366,-2.2568789,0.3486072,-0.053120155,0.4957467,0.8297649,1.799318,-2.3326242,-2.570118,0.8372251,1.3261905,0.54146296,-0.107608415,0.5027214,-0.9608618,0.628473,0.00032017063,-0.7453883,1.6111267,1.8670921,1.6249225,-2.5119624,0.9909885,-1.4044653,1.1050951,-0.9044281,-1.1775843,-0.3480022,1.9619783,-0.27471992,-1.674749,2.3268757,-1.3372933,-1.1560478,0.28568143,0.82290083,-1.5302643,-1.4843069,-1.3291823,1.8799312,0.083545595,1.045161,-0.26998198,-1.4494804,1.3344758,-1.0338036,1.3114907,0.4075356,1.1362873,0.30122554,-1.9154886,-0.47483593,-1.3483965,-0.84126264,1.5038891,-0.7248178,1.3503935,-1.0258279,-1.0484602,2.3211617,-0.2747713,-0.68778235,-0.9291701,1.413803,0.11430166,1.6376619,0.5238573,1.3060931,0.23173545,0.7856801,-0.26209936,1.4860715,0.8073297,1.0779757,-1.8904102,1.414448,-0.42839223,-0.10170409,0.75915676,0.54145765,-2.5115972,-0.22938554,-1.4839528,1.1133726,-0.59681827,1.5593717,0.8722693,1.4345373,-2.1193943,0.86099356,-0.26110348,-1.3031905,1.1115472,0.7115302,-0.3822573,-1.5421734,-1.7474648,-0.14772797,1.1308482,1.6977774,-0.26154208,-0.097863995,0.20651202,-0.8980904,0.1275078,1.6431092,1.4848076,0.6841266,0.26361018,-0.40313914,1.4925296,-0.84537375,1.2574439,0.24138701,0.53311974,-1.9098744,0.96758324,0.5131996,-0.95006233
Ampicillin-Amoxicillin,-0.045100927,0.06166129,0.089082085,-0.81094855,1.2092143,0.19200529,0.28226444,0.8300784,0.4645865,0.60369253,0.78590065,-0.42939165,-0.72809803,-0.56600565,-0.44431108,-0.09888614,-0.92184967,0.44493216,-0.45171067,-1.5695504,-0.61549145,-1.3761251,0.7366644,-0.68594605,-0.9156064,0.4088156,1.2715232,0.72794837,-0.8704086,-0.6643715,0.85081387,-0.803171,0.041344505,1.3865024,-1.0820802,-0.33514872,-0.07355824,1.0591284,0.13510536,1.0419198,-1.7951232,-1.1091633,0.39900318,-0.0022948082,1.0759445,0.09751955,-0.9753532,-1.395412,1.5014691,1.126298,0.6907669,-0.5564492,-0.57800794,1.168114,-2.0333693,0.7301419,-0.117153145,-0.07346917,-1.8400027,-0.9401411,-0.49566144,-0.8912242,-0.3585764,1.8788111,-0.11854498,0.19640355,-0.40108573,-0.9349253,-0.7818354,0.31728053,-1.0891193,0.80306107,-0.3323448,0.7943084,-1.2487663,1.5093105,-0.24581115,0.8906219,0.3726303,1.4492167,1.7470931,1.5488226,1.0940596,-0.21835819,0.8955093,-1.6773584,1.1354004,-0.6232254,1.2838095,0.3343693,0.11981443,-1.5344472,2.0821936,0.1827083,0.2884572,0.20393105,2.0216637,0.71038955,1.585408,-0.47201127,-0.036222536,-0.85314053,0.24772538,0.66725385,1.1109775,1.0439664,0.012426733,-1.1642058,1.8393477,0.039395694,0.5213071,-0.35845613,-0.9603144,-1.1366141,1.3223352,-1.8696738,-0.38125852,-0.7785264,1.1161937,0.19480163,1.8762623,0.26412314,1.4957274,-0.39216003,-1.4063253,-0.74353904,0.8540937,-1.1225401,1.5644994,0.6779276,0.09705933,-0.7765257,-0.9693028,0.8770484,0.40185475,1.5891111,1.921885,-0.92934376,0.09261804,0.45740035,-0.8718374,0.54746246,0.047584992,0.05666727,-1.0277408,-1.3129919,-0.5457664,-0.85158163,-0.015891684,1.4821323,0.9781606,1.3404588,0.44589645,-0.6316518,1.0980058,1.2835101,0.7894573,-0.0052455277,1.240341,-1.2942946,0.14203368,0.996234,0.8346326,0.041945726,1.1382319,0.71100396,0.45258257,0.34354085,0.33759522,-0.42324272,-1.3272779,0.05831168,-0.16408418,-0.3084692,0.5749424,0.15061983,0.92067313,0.059831586,-0.59951353,0.9351663,-0.52085763,-1.2244202,0.42017898,-0.024710739,-1.3721823,-1.6360954,1.0965325,-0.20886818,-0.09100014,-0.8462341,1.1511685,0.61239064,1.1612154,-0.6951871,0.47016326,-1.5041375,-0.73144054,-0.24604736,-0.6691921,0.22379503,1.1490158,0.59564,0.12194153,0.19887263,0.6444216,1.2403824,0.1915365,-0.030380685,-0.93521124,0.89892197,0.8536857,0.0547464,0.52925605,-0.69903934,0.8475587,-0.72708136,1.174009,1.2138987,0.71644855,0.046259224,0.6032325,-0.40507972,1.1658221,-1.3346044,0.3283824,-1.2478491,-0.80552334,-0.48148677,-0.9144342,1.0133783,1.3645431,0.63700175,1.4139558,-0.346735,-2.040179,-0.8680655,-0.5029637,-1.4385093,1.6091462,-1.0847583,0.037077453,-1.3792446,-0.17215149,-0.23494805,-0.8621288,-0.7170586,0.030734058,-0.09436601,0.4843898,-0.56962734,0.84773004,-0.78618675,-1.1868265,0.61329687,1.3378624,-1.0883422,-1.3671526,0.74996793,0.030827075,1.3706297,0.6568443,1.0476503,0.518965,1.3692038,-1.3521699,-0.4094733,0.40804285,-0.99986094,-0.21976131,0.69772995,0.8351321,0.37690565,1.3688704,-0.58127207,-0.17729086,0.17338282,1.1219615,-0.030693578,-1.2605164,-1.063874,0.6644014,-0.27975196,0.22704041,-1.218921,1.848208,1.4216892,-0.90115416,-0.23243514,1.3367652,1.0844843,-1.2461467,0.5287563,1.005239,0.7961645,-0.20715934,0.18690796,0.8454429,-0.3168517,0.06322068,-0.4157761
